digraph Tree {
node [shape=box, fontname="helvetica"] ;
edge [fontname="helvetica"] ;
0 [label="fwd_init_window_size <= 64263.5\ngini = 0.5\nsamples = 51123\nvalue = [0.5, 0.5]"] ;
1 [label="gini = 0.498\nsamples = 48970\nvalue = [0.438, 0.5]"] ;
0 -> 1 [labeldistance=2.5, labelangle=45, headlabel="True"] ;
2 [label="gini = -0.0\nsamples = 2153\nvalue = [0.062, 0.0]"] ;
0 -> 2 [labeldistance=2.5, labelangle=-45, headlabel="False"] ;
}
