digraph Tree {
node [shape=box, fontname="helvetica"] ;
edge [fontname="helvetica"] ;
0 [label="flow_iat.min <= 9.418\ngini = 0.5\nsamples = 51123\nvalue = [0.5, 0.5]"] ;
1 [label="gini = 0.446\nsamples = 25343\nvalue = [0.203, 0.402]"] ;
0 -> 1 [labeldistance=2.5, labelangle=45, headlabel="True"] ;
2 [label="gini = 0.373\nsamples = 25780\nvalue = [0.297, 0.098]"] ;
0 -> 2 [labeldistance=2.5, labelangle=-45, headlabel="False"] ;
}
