digraph Tree {
node [shape=box, fontname="helvetica"] ;
edge [fontname="helvetica"] ;
0 [label="fwd_init_window_size <= 64228.0\ngini = 0.5\nsamples = 51123\nvalue = [0.5, 0.5]"] ;
1 [label="gini = 0.499\nsamples = 42673\nvalue = [0.499, 0.448]"] ;
0 -> 1 [labeldistance=2.5, labelangle=45, headlabel="True"] ;
2 [label="gini = 0.051\nsamples = 8450\nvalue = [0.001, 0.052]"] ;
0 -> 2 [labeldistance=2.5, labelangle=-45, headlabel="False"] ;
}
