digraph Tree {
node [shape=box, fontname="helvetica"] ;
edge [fontname="helvetica"] ;
0 [label="bwd_iat.min <= 83.447\ngini = 0.5\nsamples = 51123\nvalue = [0.5, 0.5]"] ;
1 [label="gini = 0.5\nsamples = 46039\nvalue = [0.496, 0.499]"] ;
0 -> 1 [labeldistance=2.5, labelangle=45, headlabel="True"] ;
2 [label="gini = 0.225\nsamples = 5084\nvalue = [0.004, 0.001]"] ;
0 -> 2 [labeldistance=2.5, labelangle=-45, headlabel="False"] ;
}
