digraph Tree {
node [shape=box, fontname="helvetica"] ;
edge [fontname="helvetica"] ;
0 [label="bwd_pkts_per_sec <= 90.272\ngini = 0.5\nsamples = 51123\nvalue = [0.5, 0.5]"] ;
1 [label="gini = 0.5\nsamples = 43909\nvalue = [0.494, 0.499]"] ;
0 -> 1 [labeldistance=2.5, labelangle=45, headlabel="True"] ;
2 [label="gini = 0.165\nsamples = 7214\nvalue = [0.006, 0.001]"] ;
0 -> 2 [labeldistance=2.5, labelangle=-45, headlabel="False"] ;
}
