digraph Tree {
node [shape=box, fontname="helvetica"] ;
edge [fontname="helvetica"] ;
0 [label="fwd_pkts_payload.std <= 198.781\ngini = 0.833\nsamples = 38342\nvalue = [5920, 5449, 6277, 6422, 7044, 7230]\nclass = XMRIGCC CryptoMiner"] ;
1 [label="bwd_pkts_payload.avg <= 693.619\ngini = 0.801\nsamples = 31609\nvalue = [5696, 5320, 6277, 44, 7042, 7230]\nclass = XMRIGCC CryptoMiner"] ;
0 -> 1 [labeldistance=2.5, labelangle=45, headlabel="True"] ;
2 [label="down_up_ratio <= 1.001\ngini = 0.753\nsamples = 24668\nvalue = [5182, 5096, 118, 44, 6998, 7230]\nclass = XMRIGCC CryptoMiner"] ;
1 -> 2 ;
3 [label="bwd_header_size_min <= 4.0\ngini = 0.675\nsamples = 17383\nvalue = [4995, 4893, 116, 44, 105, 7230]\nclass = XMRIGCC CryptoMiner"] ;
2 -> 3 ;
4 [label="flow_pkts_payload.min <= 38.0\ngini = 0.437\nsamples = 8751\nvalue = [965, 555, 1, 0, 0, 7230]\nclass = XMRIGCC CryptoMiner"] ;
3 -> 4 ;
5 [label="fwd_last_window_size <= 65427.5\ngini = 0.496\nsamples = 948\nvalue = [471, 476, 1, 0, 0, 0]\nclass = Benign"] ;
4 -> 5 ;
6 [label="fwd_header_size_max <= 36.0\ngini = 0.424\nsamples = 579\nvalue = [442, 136, 1, 0, 0, 0]\nclass = Background"] ;
5 -> 6 ;
7 [label="fwd_last_window_size <= 52.0\ngini = 0.239\nsamples = 311\nvalue = [284, 26, 1, 0, 0, 0]\nclass = Background"] ;
6 -> 7 ;
8 [label="flow_iat.tot <= 4503179.073\ngini = 0.439\nsamples = 40\nvalue = [15, 25, 0, 0, 0, 0]\nclass = Benign"] ;
7 -> 8 ;
9 [label="fwd_subflow_bytes <= 18.5\ngini = 0.264\nsamples = 32\nvalue = [7, 25, 0, 0, 0, 0]\nclass = Benign"] ;
8 -> 9 ;
10 [label="fwd_pkts_payload.avg <= 22.0\ngini = 0.486\nsamples = 12\nvalue = [7, 5, 0, 0, 0, 0]\nclass = Background"] ;
9 -> 10 ;
11 [label="fwd_pkts_payload.avg <= 15.0\ngini = 0.346\nsamples = 9\nvalue = [4, 5, 0, 0, 0, 0]\nclass = Benign"] ;
10 -> 11 ;
12 [label="flow_ACK_flag_count <= 0.5\ngini = 0.444\nsamples = 6\nvalue = [4, 2, 0, 0, 0, 0]\nclass = Background"] ;
11 -> 12 ;
13 [label="fwd_pkts_payload.avg <= 7.5\ngini = 0.5\nsamples = 4\nvalue = [4, 0, 0, 0, 0, 0]\nclass = Background"] ;
12 -> 13 ;
14 [label="gini = 0.5\nsamples = 2\nvalue = [2, 0, 0, 0, 0, 0]\nclass = Background"] ;
13 -> 14 ;
15 [label="gini = 0.5\nsamples = 2\nvalue = [2, 0, 0, 0, 0, 0]\nclass = Background"] ;
13 -> 15 ;
16 [label="gini = 0.0\nsamples = 2\nvalue = [0, 2, 0, 0, 0, 0]\nclass = Benign"] ;
12 -> 16 ;
17 [label="gini = 0.0\nsamples = 3\nvalue = [0, 3, 0, 0, 0, 0]\nclass = Benign"] ;
11 -> 17 ;
18 [label="gini = 0.0\nsamples = 3\nvalue = [3, 0, 0, 0, 0, 0]\nclass = Background"] ;
10 -> 18 ;
19 [label="gini = 0.0\nsamples = 20\nvalue = [0, 20, 0, 0, 0, 0]\nclass = Benign"] ;
9 -> 19 ;
20 [label="gini = 0.0\nsamples = 8\nvalue = [8, 0, 0, 0, 0, 0]\nclass = Background"] ;
8 -> 20 ;
21 [label="fwd_init_window_size <= 4742.5\ngini = 0.112\nsamples = 271\nvalue = [269, 1, 1, 0, 0, 0]\nclass = Background"] ;
7 -> 21 ;
22 [label="fwd_header_size_min <= 22.0\ngini = 0.183\nsamples = 119\nvalue = [117, 1, 1, 0, 0, 0]\nclass = Background"] ;
21 -> 22 ;
23 [label="active.avg <= 54.479\ngini = 0.113\nsamples = 100\nvalue = [100, 0, 0, 0, 0, 0]\nclass = Background"] ;
22 -> 23 ;
24 [label="flow_FIN_flag_count <= 0.5\ngini = 0.117\nsamples = 96\nvalue = [96, 0, 0, 0, 0, 0]\nclass = Background"] ;
23 -> 24 ;
25 [label="fwd_last_window_size <= 1576.0\ngini = 0.122\nsamples = 92\nvalue = [92, 0, 0, 0, 0, 0]\nclass = Background"] ;
24 -> 25 ;
26 [label="gini = 0.124\nsamples = 90\nvalue = [90, 0, 0, 0, 0, 0]\nclass = Background"] ;
25 -> 26 ;
27 [label="gini = 0.0\nsamples = 2\nvalue = [2, 0, 0, 0, 0, 0]\nclass = Background"] ;
25 -> 27 ;
28 [label="gini = 0.0\nsamples = 4\nvalue = [4, 0, 0, 0, 0, 0]\nclass = Background"] ;
24 -> 28 ;
29 [label="gini = 0.0\nsamples = 4\nvalue = [4, 0, 0, 0, 0, 0]\nclass = Background"] ;
23 -> 29 ;
30 [label="fwd_last_window_size <= 1158.5\ngini = 0.46\nsamples = 19\nvalue = [17, 1, 1, 0, 0, 0]\nclass = Background"] ;
22 -> 30 ;
31 [label="fwd_iat.max <= 2862.096\ngini = 0.401\nsamples = 18\nvalue = [17, 1, 0, 0, 0, 0]\nclass = Background"] ;
30 -> 31 ;
32 [label="fwd_last_window_size <= 275.0\ngini = 0.43\nsamples = 16\nvalue = [15, 1, 0, 0, 0, 0]\nclass = Background"] ;
31 -> 32 ;
33 [label="gini = 0.0\nsamples = 1\nvalue = [0, 1, 0, 0, 0, 0]\nclass = Benign"] ;
32 -> 33 ;
34 [label="fwd_header_size_min <= 28.0\ngini = 0.391\nsamples = 15\nvalue = [15, 0, 0, 0, 0, 0]\nclass = Background"] ;
32 -> 34 ;
35 [label="gini = 0.355\nsamples = 13\nvalue = [13, 0, 0, 0, 0, 0]\nclass = Background"] ;
34 -> 35 ;
36 [label="gini = 0.5\nsamples = 2\nvalue = [2, 0, 0, 0, 0, 0]\nclass = Background"] ;
34 -> 36 ;
37 [label="gini = 0.0\nsamples = 2\nvalue = [2, 0, 0, 0, 0, 0]\nclass = Background"] ;
31 -> 37 ;
38 [label="gini = 0.0\nsamples = 1\nvalue = [0, 0, 1, 0, 0, 0]\nclass = Bruteforce"] ;
30 -> 38 ;
39 [label="fwd_init_window_size <= 11396.0\ngini = 0.051\nsamples = 152\nvalue = [152, 0, 0, 0, 0, 0]\nclass = Background"] ;
21 -> 39 ;
40 [label="gini = -0.0\nsamples = 61\nvalue = [61, 0, 0, 0, 0, 0]\nclass = Background"] ;
39 -> 40 ;
41 [label="fwd_init_window_size <= 32705.0\ngini = 0.084\nsamples = 91\nvalue = [91, 0, 0, 0, 0, 0]\nclass = Background"] ;
39 -> 41 ;
42 [label="flow_ACK_flag_count <= 0.5\ngini = 0.176\nsamples = 41\nvalue = [41, 0, 0, 0, 0, 0]\nclass = Background"] ;
41 -> 42 ;
43 [label="fwd_header_size_tot <= 22.0\ngini = 0.198\nsamples = 36\nvalue = [36, 0, 0, 0, 0, 0]\nclass = Background"] ;
42 -> 43 ;
44 [label="flow_CWR_flag_count <= 0.5\ngini = 0.219\nsamples = 32\nvalue = [32, 0, 0, 0, 0, 0]\nclass = Background"] ;
43 -> 44 ;
45 [label="gini = 0.238\nsamples = 29\nvalue = [29, 0, 0, 0, 0, 0]\nclass = Background"] ;
44 -> 45 ;
46 [label="gini = 0.0\nsamples = 3\nvalue = [3, 0, 0, 0, 0, 0]\nclass = Background"] ;
44 -> 46 ;
47 [label="gini = 0.0\nsamples = 4\nvalue = [4, 0, 0, 0, 0, 0]\nclass = Background"] ;
43 -> 47 ;
48 [label="gini = 0.0\nsamples = 5\nvalue = [5, 0, 0, 0, 0, 0]\nclass = Background"] ;
42 -> 48 ;
49 [label="gini = 0.0\nsamples = 50\nvalue = [50, 0, 0, 0, 0, 0]\nclass = Background"] ;
41 -> 49 ;
50 [label="active.min <= 3039335.489\ngini = 0.5\nsamples = 268\nvalue = [158, 110, 0, 0, 0, 0]\nclass = Background"] ;
6 -> 50 ;
51 [label="active.min <= 3005415.44\ngini = 0.495\nsamples = 245\nvalue = [158, 87, 0, 0, 0, 0]\nclass = Background"] ;
50 -> 51 ;
52 [label="fwd_init_window_size <= 29000.0\ngini = 0.5\nsamples = 195\nvalue = [118, 77, 0, 0, 0, 0]\nclass = Background"] ;
51 -> 52 ;
53 [label="active.tot <= 1001126.409\ngini = 0.467\nsamples = 97\nvalue = [20, 77, 0, 0, 0, 0]\nclass = Benign"] ;
52 -> 53 ;
54 [label="fwd_iat.min <= 1000819.445\ngini = 0.487\nsamples = 69\nvalue = [10, 59, 0, 0, 0, 0]\nclass = Benign"] ;
53 -> 54 ;
55 [label="fwd_iat.min <= 500345.588\ngini = 0.481\nsamples = 67\nvalue = [8, 59, 0, 0, 0, 0]\nclass = Benign"] ;
54 -> 55 ;
56 [label="gini = 0.476\nsamples = 59\nvalue = [0, 59, 0, 0, 0, 0]\nclass = Benign"] ;
55 -> 56 ;
57 [label="gini = 0.5\nsamples = 8\nvalue = [8, 0, 0, 0, 0, 0]\nclass = Background"] ;
55 -> 57 ;
58 [label="gini = 0.0\nsamples = 2\nvalue = [2, 0, 0, 0, 0, 0]\nclass = Background"] ;
54 -> 58 ;
59 [label="fwd_pkts_per_sec <= 1.995\ngini = 0.375\nsamples = 28\nvalue = [10, 18, 0, 0, 0, 0]\nclass = Benign"] ;
53 -> 59 ;
60 [label="gini = 0.0\nsamples = 6\nvalue = [0, 6, 0, 0, 0, 0]\nclass = Benign"] ;
59 -> 60 ;
61 [label="fwd_iat.max <= 1001626.015\ngini = 0.434\nsamples = 22\nvalue = [10, 12, 0, 0, 0, 0]\nclass = Benign"] ;
59 -> 61 ;
62 [label="gini = -0.0\nsamples = 5\nvalue = [0, 5, 0, 0, 0, 0]\nclass = Benign"] ;
61 -> 62 ;
63 [label="flow_iat.avg <= 1002170.444\ngini = 0.484\nsamples = 17\nvalue = [10, 7, 0, 0, 0, 0]\nclass = Background"] ;
61 -> 63 ;
64 [label="gini = 0.408\nsamples = 7\nvalue = [0, 7, 0, 0, 0, 0]\nclass = Benign"] ;
63 -> 64 ;
65 [label="gini = 0.5\nsamples = 10\nvalue = [10, 0, 0, 0, 0, 0]\nclass = Background"] ;
63 -> 65 ;
66 [label="fwd_last_window_size <= 46720.0\ngini = 0.475\nsamples = 98\nvalue = [98, 0, 0, 0, 0, 0]\nclass = Background"] ;
52 -> 66 ;
67 [label="gini = 0.482\nsamples = 94\nvalue = [94, 0, 0, 0, 0, 0]\nclass = Background"] ;
66 -> 67 ;
68 [label="gini = 0.0\nsamples = 4\nvalue = [4, 0, 0, 0, 0, 0]\nclass = Background"] ;
66 -> 68 ;
69 [label="flow_iat.tot <= 3005720.496\ngini = 0.343\nsamples = 50\nvalue = [40, 10, 0, 0, 0, 0]\nclass = Background"] ;
51 -> 69 ;
70 [label="fwd_last_window_size <= 29000.0\ngini = 0.153\nsamples = 24\nvalue = [24, 0, 0, 0, 0, 0]\nclass = Background"] ;
69 -> 70 ;
71 [label="fwd_iat.avg <= 1502636.79\ngini = 0.26\nsamples = 13\nvalue = [13, 0, 0, 0, 0, 0]\nclass = Background"] ;
70 -> 71 ;
72 [label="fwd_iat.max <= 2003033.042\ngini = 0.298\nsamples = 11\nvalue = [11, 0, 0, 0, 0, 0]\nclass = Background"] ;
71 -> 72 ;
73 [label="gini = 0.444\nsamples = 3\nvalue = [3, 0, 0, 0, 0, 0]\nclass = Background"] ;
72 -> 73 ;
74 [label="flow_iat.avg <= 1502504.528\ngini = 0.219\nsamples = 8\nvalue = [8, 0, 0, 0, 0, 0]\nclass = Background"] ;
72 -> 74 ;
75 [label="gini = 0.0\nsamples = 1\nvalue = [1, 0, 0, 0, 0, 0]\nclass = Background"] ;
74 -> 75 ;
76 [label="gini = 0.245\nsamples = 7\nvalue = [7, 0, 0, 0, 0, 0]\nclass = Background"] ;
74 -> 76 ;
77 [label="gini = 0.0\nsamples = 2\nvalue = [2, 0, 0, 0, 0, 0]\nclass = Background"] ;
71 -> 77 ;
78 [label="gini = 0.0\nsamples = 11\nvalue = [11, 0, 0, 0, 0, 0]\nclass = Background"] ;
70 -> 78 ;
79 [label="flow_iat.std <= 709148.965\ngini = 0.453\nsamples = 26\nvalue = [16, 10, 0, 0, 0, 0]\nclass = Background"] ;
69 -> 79 ;
80 [label="fwd_iat.tot <= 3007368.922\ngini = 0.48\nsamples = 20\nvalue = [11, 9, 0, 0, 0, 0]\nclass = Background"] ;
79 -> 80 ;
81 [label="fwd_iat.max <= 2003982.425\ngini = 0.375\nsamples = 8\nvalue = [8, 0, 0, 0, 0, 0]\nclass = Background"] ;
80 -> 81 ;
82 [label="gini = 0.0\nsamples = 1\nvalue = [1, 0, 0, 0, 0, 0]\nclass = Background"] ;
81 -> 82 ;
83 [label="gini = 0.408\nsamples = 7\nvalue = [7, 0, 0, 0, 0, 0]\nclass = Background"] ;
81 -> 83 ;
84 [label="flow_iat.min <= 1002358.556\ngini = 0.5\nsamples = 12\nvalue = [3, 9, 0, 0, 0, 0]\nclass = Benign"] ;
80 -> 84 ;
85 [label="fwd_init_window_size <= 29000.0\ngini = 0.496\nsamples = 11\nvalue = [2, 9, 0, 0, 0, 0]\nclass = Benign"] ;
84 -> 85 ;
86 [label="gini = 0.5\nsamples = 2\nvalue = [2, 0, 0, 0, 0, 0]\nclass = Background"] ;
85 -> 86 ;
87 [label="gini = 0.494\nsamples = 9\nvalue = [0, 9, 0, 0, 0, 0]\nclass = Benign"] ;
85 -> 87 ;
88 [label="gini = 0.0\nsamples = 1\nvalue = [1, 0, 0, 0, 0, 0]\nclass = Background"] ;
84 -> 88 ;
89 [label="fwd_iat.tot <= 3007140.517\ngini = 0.278\nsamples = 6\nvalue = [5, 1, 0, 0, 0, 0]\nclass = Background"] ;
79 -> 89 ;
90 [label="flow_iat.min <= 1001092.911\ngini = 0.5\nsamples = 2\nvalue = [1, 1, 0, 0, 0, 0]\nclass = Background"] ;
89 -> 90 ;
91 [label="gini = 0.0\nsamples = 1\nvalue = [1, 0, 0, 0, 0, 0]\nclass = Background"] ;
90 -> 91 ;
92 [label="gini = 0.0\nsamples = 1\nvalue = [0, 1, 0, 0, 0, 0]\nclass = Benign"] ;
90 -> 92 ;
93 [label="gini = 0.0\nsamples = 4\nvalue = [4, 0, 0, 0, 0, 0]\nclass = Background"] ;
89 -> 93 ;
94 [label="gini = 0.0\nsamples = 23\nvalue = [0, 23, 0, 0, 0, 0]\nclass = Benign"] ;
50 -> 94 ;
95 [label="fwd_header_size_min <= 36.0\ngini = 0.117\nsamples = 369\nvalue = [29, 340, 0, 0, 0, 0]\nclass = Benign"] ;
5 -> 95 ;
96 [label="flow_ACK_flag_count <= 0.5\ngini = 0.328\nsamples = 29\nvalue = [29, 0, 0, 0, 0, 0]\nclass = Background"] ;
95 -> 96 ;
97 [label="fwd_header_size_tot <= 26.0\ngini = 0.355\nsamples = 26\nvalue = [26, 0, 0, 0, 0, 0]\nclass = Background"] ;
96 -> 97 ;
98 [label="gini = 0.365\nsamples = 25\nvalue = [25, 0, 0, 0, 0, 0]\nclass = Background"] ;
97 -> 98 ;
99 [label="gini = 0.0\nsamples = 1\nvalue = [1, 0, 0, 0, 0, 0]\nclass = Background"] ;
97 -> 99 ;
100 [label="gini = 0.0\nsamples = 3\nvalue = [3, 0, 0, 0, 0, 0]\nclass = Background"] ;
96 -> 100 ;
101 [label="gini = 0.0\nsamples = 340\nvalue = [0, 340, 0, 0, 0, 0]\nclass = Benign"] ;
95 -> 101 ;
102 [label="fwd_subflow_pkts <= 1.5\ngini = 0.321\nsamples = 7803\nvalue = [494, 79, 0, 0, 0, 7230]\nclass = XMRIGCC CryptoMiner"] ;
4 -> 102 ;
103 [label="flow_pkts_payload.min <= 40.5\ngini = 0.536\nsamples = 3499\nvalue = [456, 55, 0, 0, 0, 2988]\nclass = XMRIGCC CryptoMiner"] ;
102 -> 103 ;
104 [label="fwd_pkts_payload.tot <= 8460.0\ngini = 0.447\nsamples = 2787\nvalue = [0, 0, 0, 0, 0, 2787]\nclass = XMRIGCC CryptoMiner"] ;
103 -> 104 ;
105 [label="gini = 0.447\nsamples = 2786\nvalue = [0, 0, 0, 0, 0, 2786]\nclass = XMRIGCC CryptoMiner"] ;
104 -> 105 ;
106 [label="gini = 0.0\nsamples = 1\nvalue = [0, 0, 0, 0, 0, 1]\nclass = XMRIGCC CryptoMiner"] ;
104 -> 106 ;
107 [label="fwd_pkts_payload.avg <= 181.0\ngini = 0.621\nsamples = 712\nvalue = [456, 55, 0, 0, 0, 201]\nclass = Background"] ;
103 -> 107 ;
108 [label="idle.min <= 59996700.048\ngini = 0.44\nsamples = 478\nvalue = [428, 50, 0, 0, 0, 0]\nclass = Background"] ;
107 -> 108 ;
109 [label="payload_bytes_per_second <= 3.488\ngini = 0.407\nsamples = 359\nvalue = [349, 10, 0, 0, 0, 0]\nclass = Background"] ;
108 -> 109 ;
110 [label="flow_pkts_payload.min <= 69.5\ngini = 0.421\nsamples = 325\nvalue = [316, 9, 0, 0, 0, 0]\nclass = Background"] ;
109 -> 110 ;
111 [label="flow_pkts_payload.avg <= 43.5\ngini = 0.375\nsamples = 4\nvalue = [1, 3, 0, 0, 0, 0]\nclass = Benign"] ;
110 -> 111 ;
112 [label="fwd_pkts_payload.tot <= 41.0\ngini = 0.5\nsamples = 2\nvalue = [1, 1, 0, 0, 0, 0]\nclass = Background"] ;
111 -> 112 ;
113 [label="gini = 0.0\nsamples = 1\nvalue = [0, 1, 0, 0, 0, 0]\nclass = Benign"] ;
112 -> 113 ;
114 [label="gini = 0.0\nsamples = 1\nvalue = [1, 0, 0, 0, 0, 0]\nclass = Background"] ;
112 -> 114 ;
115 [label="gini = 0.0\nsamples = 2\nvalue = [0, 2, 0, 0, 0, 0]\nclass = Benign"] ;
111 -> 115 ;
116 [label="fwd_subflow_bytes <= 121.0\ngini = 0.417\nsamples = 321\nvalue = [315, 6, 0, 0, 0, 0]\nclass = Background"] ;
110 -> 116 ;
117 [label="flow_pkts_payload.tot <= 497.5\ngini = 0.346\nsamples = 108\nvalue = [107, 1, 0, 0, 0, 0]\nclass = Background"] ;
116 -> 117 ;
118 [label="flow_pkts_payload.tot <= 200.0\ngini = 0.337\nsamples = 107\nvalue = [107, 0, 0, 0, 0, 0]\nclass = Background"] ;
117 -> 118 ;
119 [label="gini = 0.354\nsamples = 100\nvalue = [100, 0, 0, 0, 0, 0]\nclass = Background"] ;
118 -> 119 ;
120 [label="gini = 0.0\nsamples = 7\nvalue = [7, 0, 0, 0, 0, 0]\nclass = Background"] ;
118 -> 120 ;
121 [label="gini = 0.0\nsamples = 1\nvalue = [0, 1, 0, 0, 0, 0]\nclass = Benign"] ;
117 -> 121 ;
122 [label="flow_pkts_payload.max <= 120.5\ngini = 0.444\nsamples = 213\nvalue = [208, 5, 0, 0, 0, 0]\nclass = Background"] ;
116 -> 122 ;
123 [label="gini = -0.0\nsamples = 5\nvalue = [0, 5, 0, 0, 0, 0]\nclass = Benign"] ;
122 -> 123 ;
124 [label="flow_duration <= 119.99\ngini = 0.433\nsamples = 208\nvalue = [208, 0, 0, 0, 0, 0]\nclass = Background"] ;
122 -> 124 ;
125 [label="gini = 0.451\nsamples = 186\nvalue = [186, 0, 0, 0, 0, 0]\nclass = Background"] ;
124 -> 125 ;
126 [label="gini = 0.165\nsamples = 22\nvalue = [22, 0, 0, 0, 0, 0]\nclass = Background"] ;
124 -> 126 ;
127 [label="fwd_iat.tot <= 59988729.0\ngini = 0.208\nsamples = 34\nvalue = [33, 1, 0, 0, 0, 0]\nclass = Background"] ;
109 -> 127 ;
128 [label="flow_pkts_payload.max <= 151.0\ngini = 0.332\nsamples = 19\nvalue = [18, 1, 0, 0, 0, 0]\nclass = Background"] ;
127 -> 128 ;
129 [label="flow_iat.min <= 59986716.986\ngini = 0.18\nsamples = 10\nvalue = [10, 0, 0, 0, 0, 0]\nclass = Background"] ;
128 -> 129 ;
130 [label="flow_pkts_payload.min <= 131.5\ngini = 0.32\nsamples = 5\nvalue = [5, 0, 0, 0, 0, 0]\nclass = Background"] ;
129 -> 130 ;
131 [label="gini = 0.375\nsamples = 4\nvalue = [4, 0, 0, 0, 0, 0]\nclass = Background"] ;
130 -> 131 ;
132 [label="gini = 0.0\nsamples = 1\nvalue = [1, 0, 0, 0, 0, 0]\nclass = Background"] ;
130 -> 132 ;
133 [label="gini = 0.0\nsamples = 5\nvalue = [5, 0, 0, 0, 0, 0]\nclass = Background"] ;
129 -> 133 ;
134 [label="flow_pkts_payload.avg <= 157.0\ngini = 0.444\nsamples = 9\nvalue = [8, 1, 0, 0, 0, 0]\nclass = Background"] ;
128 -> 134 ;
135 [label="gini = 0.408\nsamples = 7\nvalue = [7, 0, 0, 0, 0, 0]\nclass = Background"] ;
134 -> 135 ;
136 [label="flow_duration <= 59.993\ngini = 0.5\nsamples = 2\nvalue = [1, 1, 0, 0, 0, 0]\nclass = Background"] ;
134 -> 136 ;
137 [label="gini = 0.0\nsamples = 1\nvalue = [0, 1, 0, 0, 0, 0]\nclass = Benign"] ;
136 -> 137 ;
138 [label="gini = 0.0\nsamples = 1\nvalue = [1, 0, 0, 0, 0, 0]\nclass = Background"] ;
136 -> 138 ;
139 [label="gini = 0.0\nsamples = 15\nvalue = [15, 0, 0, 0, 0, 0]\nclass = Background"] ;
127 -> 139 ;
140 [label="fwd_pkts_per_sec <= 0.033\ngini = 0.496\nsamples = 119\nvalue = [79, 40, 0, 0, 0, 0]\nclass = Background"] ;
108 -> 140 ;
141 [label="idle.avg <= 59999062.479\ngini = 0.359\nsamples = 47\nvalue = [40, 7, 0, 0, 0, 0]\nclass = Background"] ;
140 -> 141 ;
142 [label="flow_pkts_payload.max <= 151.0\ngini = 0.375\nsamples = 8\nvalue = [2, 6, 0, 0, 0, 0]\nclass = Benign"] ;
141 -> 142 ;
143 [label="gini = 0.0\nsamples = 6\nvalue = [0, 6, 0, 0, 0, 0]\nclass = Benign"] ;
142 -> 143 ;
144 [label="gini = 0.0\nsamples = 2\nvalue = [2, 0, 0, 0, 0, 0]\nclass = Background"] ;
142 -> 144 ;
145 [label="fwd_iat.std <= 684.891\ngini = 0.224\nsamples = 39\nvalue = [38, 1, 0, 0, 0, 0]\nclass = Background"] ;
141 -> 145 ;
146 [label="flow_duration <= 90.0\ngini = 0.193\nsamples = 37\nvalue = [37, 0, 0, 0, 0, 0]\nclass = Background"] ;
145 -> 146 ;
147 [label="flow_pkts_payload.tot <= 237.0\ngini = 0.308\nsamples = 21\nvalue = [21, 0, 0, 0, 0, 0]\nclass = Background"] ;
146 -> 147 ;
148 [label="gini = 0.375\nsamples = 16\nvalue = [16, 0, 0, 0, 0, 0]\nclass = Background"] ;
147 -> 148 ;
149 [label="gini = 0.0\nsamples = 5\nvalue = [5, 0, 0, 0, 0, 0]\nclass = Background"] ;
147 -> 149 ;
150 [label="gini = 0.0\nsamples = 16\nvalue = [16, 0, 0, 0, 0, 0]\nclass = Background"] ;
146 -> 150 ;
151 [label="flow_pkts_per_sec <= 0.022\ngini = 0.5\nsamples = 2\nvalue = [1, 1, 0, 0, 0, 0]\nclass = Background"] ;
145 -> 151 ;
152 [label="gini = 0.0\nsamples = 1\nvalue = [0, 1, 0, 0, 0, 0]\nclass = Benign"] ;
151 -> 152 ;
153 [label="gini = 0.0\nsamples = 1\nvalue = [1, 0, 0, 0, 0, 0]\nclass = Background"] ;
151 -> 153 ;
154 [label="fwd_iat.max <= 59998867.512\ngini = 0.481\nsamples = 72\nvalue = [39, 33, 0, 0, 0, 0]\nclass = Background"] ;
140 -> 154 ;
155 [label="flow_pkts_payload.avg <= 100.0\ngini = 0.493\nsamples = 43\nvalue = [33, 10, 0, 0, 0, 0]\nclass = Background"] ;
154 -> 155 ;
156 [label="gini = 0.0\nsamples = 4\nvalue = [0, 4, 0, 0, 0, 0]\nclass = Benign"] ;
155 -> 156 ;
157 [label="idle.avg <= 59998404.503\ngini = 0.473\nsamples = 39\nvalue = [33, 6, 0, 0, 0, 0]\nclass = Background"] ;
155 -> 157 ;
158 [label="flow_iat.tot <= 59998067.975\ngini = 0.5\nsamples = 26\nvalue = [20, 6, 0, 0, 0, 0]\nclass = Background"] ;
157 -> 158 ;
159 [label="gini = 0.455\nsamples = 20\nvalue = [20, 0, 0, 0, 0, 0]\nclass = Background"] ;
158 -> 159 ;
160 [label="gini = 0.0\nsamples = 6\nvalue = [0, 6, 0, 0, 0, 0]\nclass = Benign"] ;
158 -> 160 ;
161 [label="flow_pkts_payload.tot <= 233.0\ngini = 0.26\nsamples = 13\nvalue = [13, 0, 0, 0, 0, 0]\nclass = Background"] ;
157 -> 161 ;
162 [label="gini = 0.0\nsamples = 9\nvalue = [9, 0, 0, 0, 0, 0]\nclass = Background"] ;
161 -> 162 ;
163 [label="gini = 0.5\nsamples = 4\nvalue = [4, 0, 0, 0, 0, 0]\nclass = Background"] ;
161 -> 163 ;
164 [label="fwd_pkts_payload.avg <= 123.0\ngini = 0.285\nsamples = 29\nvalue = [6, 23, 0, 0, 0, 0]\nclass = Benign"] ;
154 -> 164 ;
165 [label="gini = 0.0\nsamples = 15\nvalue = [0, 15, 0, 0, 0, 0]\nclass = Benign"] ;
164 -> 165 ;
166 [label="flow_pkts_payload.min <= 150.5\ngini = 0.459\nsamples = 14\nvalue = [6, 8, 0, 0, 0, 0]\nclass = Benign"] ;
164 -> 166 ;
167 [label="flow_pkts_payload.tot <= 270.0\ngini = 0.444\nsamples = 6\nvalue = [6, 0, 0, 0, 0, 0]\nclass = Background"] ;
166 -> 167 ;
168 [label="gini = 0.48\nsamples = 5\nvalue = [5, 0, 0, 0, 0, 0]\nclass = Background"] ;
167 -> 168 ;
169 [label="gini = 0.0\nsamples = 1\nvalue = [1, 0, 0, 0, 0, 0]\nclass = Background"] ;
167 -> 169 ;
170 [label="gini = 0.219\nsamples = 8\nvalue = [0, 8, 0, 0, 0, 0]\nclass = Benign"] ;
166 -> 170 ;
171 [label="flow_pkts_payload.max <= 255.5\ngini = 0.393\nsamples = 234\nvalue = [28, 5, 0, 0, 0, 201]\nclass = XMRIGCC CryptoMiner"] ;
107 -> 171 ;
172 [label="fwd_pkts_payload.max <= 206.0\ngini = 0.215\nsamples = 201\nvalue = [0, 0, 0, 0, 0, 201]\nclass = XMRIGCC CryptoMiner"] ;
171 -> 172 ;
173 [label="gini = 0.202\nsamples = 171\nvalue = [0, 0, 0, 0, 0, 171]\nclass = XMRIGCC CryptoMiner"] ;
172 -> 173 ;
174 [label="gini = 0.287\nsamples = 30\nvalue = [0, 0, 0, 0, 0, 30]\nclass = XMRIGCC CryptoMiner"] ;
172 -> 174 ;
175 [label="idle.min <= 8705316.424\ngini = 0.463\nsamples = 33\nvalue = [28, 5, 0, 0, 0, 0]\nclass = Background"] ;
171 -> 175 ;
176 [label="active.min <= 4374802.47\ngini = 0.48\nsamples = 30\nvalue = [25, 5, 0, 0, 0, 0]\nclass = Background"] ;
175 -> 176 ;
177 [label="active.min <= 4200175.524\ngini = 0.435\nsamples = 25\nvalue = [24, 1, 0, 0, 0, 0]\nclass = Background"] ;
176 -> 177 ;
178 [label="fwd_data_pkts_tot <= 4.5\ngini = 0.488\nsamples = 19\nvalue = [18, 1, 0, 0, 0, 0]\nclass = Background"] ;
177 -> 178 ;
179 [label="flow_iat.std <= 6268467.21\ngini = 0.475\nsamples = 18\nvalue = [18, 0, 0, 0, 0, 0]\nclass = Background"] ;
178 -> 179 ;
180 [label="gini = 0.484\nsamples = 17\nvalue = [17, 0, 0, 0, 0, 0]\nclass = Background"] ;
179 -> 180 ;
181 [label="gini = 0.0\nsamples = 1\nvalue = [1, 0, 0, 0, 0, 0]\nclass = Background"] ;
179 -> 181 ;
182 [label="gini = 0.0\nsamples = 1\nvalue = [0, 1, 0, 0, 0, 0]\nclass = Benign"] ;
178 -> 182 ;
183 [label="gini = 0.0\nsamples = 6\nvalue = [6, 0, 0, 0, 0, 0]\nclass = Background"] ;
177 -> 183 ;
184 [label="active.max <= 4590082.884\ngini = 0.32\nsamples = 5\nvalue = [1, 4, 0, 0, 0, 0]\nclass = Benign"] ;
176 -> 184 ;
185 [label="gini = 0.0\nsamples = 3\nvalue = [0, 3, 0, 0, 0, 0]\nclass = Benign"] ;
184 -> 185 ;
186 [label="fwd_iat.std <= 12106599.604\ngini = 0.5\nsamples = 2\nvalue = [1, 1, 0, 0, 0, 0]\nclass = Background"] ;
184 -> 186 ;
187 [label="gini = 0.0\nsamples = 1\nvalue = [0, 1, 0, 0, 0, 0]\nclass = Benign"] ;
186 -> 187 ;
188 [label="gini = 0.0\nsamples = 1\nvalue = [1, 0, 0, 0, 0, 0]\nclass = Background"] ;
186 -> 188 ;
189 [label="gini = 0.0\nsamples = 3\nvalue = [3, 0, 0, 0, 0, 0]\nclass = Background"] ;
175 -> 189 ;
190 [label="fwd_pkts_payload.tot <= 675.0\ngini = 0.06\nsamples = 4304\nvalue = [38, 24, 0, 0, 0, 4242]\nclass = XMRIGCC CryptoMiner"] ;
102 -> 190 ;
191 [label="fwd_pkts_payload.max <= 79.0\ngini = 0.051\nsamples = 4267\nvalue = [26, 15, 0, 0, 0, 4226]\nclass = XMRIGCC CryptoMiner"] ;
190 -> 191 ;
192 [label="flow_iat.min <= 764171.958\ngini = 0.045\nsamples = 4209\nvalue = [25, 1, 0, 0, 0, 4183]\nclass = XMRIGCC CryptoMiner"] ;
191 -> 192 ;
193 [label="active.tot <= 1527202.129\ngini = 0.02\nsamples = 1550\nvalue = [10, 1, 0, 0, 0, 1539]\nclass = XMRIGCC CryptoMiner"] ;
192 -> 193 ;
194 [label="fwd_iat.min <= 762780.547\ngini = 0.057\nsamples = 239\nvalue = [6, 1, 0, 0, 0, 232]\nclass = XMRIGCC CryptoMiner"] ;
193 -> 194 ;
195 [label="idle.avg <= 2500425.994\ngini = 0.025\nsamples = 233\nvalue = [2, 1, 0, 0, 0, 230]\nclass = XMRIGCC CryptoMiner"] ;
194 -> 195 ;
196 [label="payload_bytes_per_second <= 42571682.686\ngini = 0.009\nsamples = 231\nvalue = [1, 0, 0, 0, 0, 230]\nclass = XMRIGCC CryptoMiner"] ;
195 -> 196 ;
197 [label="gini = -0.0\nsamples = 211\nvalue = [0, 0, 0, 0, 0, 211]\nclass = XMRIGCC CryptoMiner"] ;
196 -> 197 ;
198 [label="flow_iat.min <= 29.922\ngini = 0.095\nsamples = 20\nvalue = [1, 0, 0, 0, 0, 19]\nclass = XMRIGCC CryptoMiner"] ;
196 -> 198 ;
199 [label="gini = 0.0\nsamples = 19\nvalue = [0, 0, 0, 0, 0, 19]\nclass = XMRIGCC CryptoMiner"] ;
198 -> 199 ;
200 [label="gini = 0.0\nsamples = 1\nvalue = [1, 0, 0, 0, 0, 0]\nclass = Background"] ;
198 -> 200 ;
201 [label="fwd_pkts_payload.min <= 42.0\ngini = 0.5\nsamples = 2\nvalue = [1, 1, 0, 0, 0, 0]\nclass = Background"] ;
195 -> 201 ;
202 [label="gini = 0.0\nsamples = 1\nvalue = [1, 0, 0, 0, 0, 0]\nclass = Background"] ;
201 -> 202 ;
203 [label="gini = 0.0\nsamples = 1\nvalue = [0, 1, 0, 0, 0, 0]\nclass = Benign"] ;
201 -> 203 ;
204 [label="flow_iat.max <= 764229.894\ngini = 0.444\nsamples = 6\nvalue = [4, 0, 0, 0, 0, 2]\nclass = Background"] ;
194 -> 204 ;
205 [label="gini = 0.0\nsamples = 2\nvalue = [0, 0, 0, 0, 0, 2]\nclass = XMRIGCC CryptoMiner"] ;
204 -> 205 ;
206 [label="gini = 0.0\nsamples = 4\nvalue = [4, 0, 0, 0, 0, 0]\nclass = Background"] ;
204 -> 206 ;
207 [label="flow_pkts_per_sec <= 5.295\ngini = 0.014\nsamples = 1311\nvalue = [4, 0, 0, 0, 0, 1307]\nclass = XMRIGCC CryptoMiner"] ;
193 -> 207 ;
208 [label="flow_iat.std <= 46.277\ngini = 0.012\nsamples = 1302\nvalue = [3, 0, 0, 0, 0, 1299]\nclass = XMRIGCC CryptoMiner"] ;
207 -> 208 ;
209 [label="flow_iat.std <= 40.377\ngini = 0.198\nsamples = 9\nvalue = [1, 0, 0, 0, 0, 8]\nclass = XMRIGCC CryptoMiner"] ;
208 -> 209 ;
210 [label="gini = 0.0\nsamples = 7\nvalue = [0, 0, 0, 0, 0, 7]\nclass = XMRIGCC CryptoMiner"] ;
209 -> 210 ;
211 [label="flow_iat.std <= 43.664\ngini = 0.5\nsamples = 2\nvalue = [1, 0, 0, 0, 0, 1]\nclass = Background"] ;
209 -> 211 ;
212 [label="gini = 0.0\nsamples = 1\nvalue = [1, 0, 0, 0, 0, 0]\nclass = Background"] ;
211 -> 212 ;
213 [label="gini = 0.0\nsamples = 1\nvalue = [0, 0, 0, 0, 0, 1]\nclass = XMRIGCC CryptoMiner"] ;
211 -> 213 ;
214 [label="fwd_iat.std <= 317.113\ngini = 0.011\nsamples = 1293\nvalue = [2, 0, 0, 0, 0, 1291]\nclass = XMRIGCC CryptoMiner"] ;
208 -> 214 ;
215 [label="fwd_pkts_per_sec <= 1.962\ngini = 0.029\nsamples = 479\nvalue = [2, 0, 0, 0, 0, 477]\nclass = XMRIGCC CryptoMiner"] ;
214 -> 215 ;
216 [label="gini = 0.0\nsamples = 2\nvalue = [2, 0, 0, 0, 0, 0]\nclass = Background"] ;
215 -> 216 ;
217 [label="gini = 0.021\nsamples = 477\nvalue = [0, 0, 0, 0, 0, 477]\nclass = XMRIGCC CryptoMiner"] ;
215 -> 217 ;
218 [label="gini = 0.0\nsamples = 814\nvalue = [0, 0, 0, 0, 0, 814]\nclass = XMRIGCC CryptoMiner"] ;
214 -> 218 ;
219 [label="fwd_data_pkts_tot <= 10.5\ngini = 0.198\nsamples = 9\nvalue = [1, 0, 0, 0, 0, 8]\nclass = XMRIGCC CryptoMiner"] ;
207 -> 219 ;
220 [label="gini = 0.0\nsamples = 1\nvalue = [1, 0, 0, 0, 0, 0]\nclass = Background"] ;
219 -> 220 ;
221 [label="gini = 0.0\nsamples = 8\nvalue = [0, 0, 0, 0, 0, 8]\nclass = XMRIGCC CryptoMiner"] ;
219 -> 221 ;
222 [label="active.min <= 1554795.623\ngini = 0.058\nsamples = 2659\nvalue = [15, 0, 0, 0, 0, 2644]\nclass = XMRIGCC CryptoMiner"] ;
192 -> 222 ;
223 [label="fwd_iat.avg <= 764271.259\ngini = 0.056\nsamples = 2631\nvalue = [11, 0, 0, 0, 0, 2620]\nclass = XMRIGCC CryptoMiner"] ;
222 -> 223 ;
224 [label="active.min <= 1528521.061\ngini = 0.112\nsamples = 336\nvalue = [11, 0, 0, 0, 0, 325]\nclass = XMRIGCC CryptoMiner"] ;
223 -> 224 ;
225 [label="fwd_iat.min <= 764180.064\ngini = 0.056\nsamples = 208\nvalue = [0, 0, 0, 0, 0, 208]\nclass = XMRIGCC CryptoMiner"] ;
224 -> 225 ;
226 [label="flow_iat.std <= 86.823\ngini = 0.337\nsamples = 14\nvalue = [0, 0, 0, 0, 0, 14]\nclass = XMRIGCC CryptoMiner"] ;
225 -> 226 ;
227 [label="gini = 0.469\nsamples = 8\nvalue = [0, 0, 0, 0, 0, 8]\nclass = XMRIGCC CryptoMiner"] ;
226 -> 227 ;
228 [label="gini = 0.0\nsamples = 6\nvalue = [0, 0, 0, 0, 0, 6]\nclass = XMRIGCC CryptoMiner"] ;
226 -> 228 ;
229 [label="flow_iat.min <= 764224.529\ngini = 0.03\nsamples = 194\nvalue = [0, 0, 0, 0, 0, 194]\nclass = XMRIGCC CryptoMiner"] ;
225 -> 229 ;
230 [label="gini = -0.0\nsamples = 130\nvalue = [0, 0, 0, 0, 0, 130]\nclass = XMRIGCC CryptoMiner"] ;
229 -> 230 ;
231 [label="gini = 0.089\nsamples = 64\nvalue = [0, 0, 0, 0, 0, 64]\nclass = XMRIGCC CryptoMiner"] ;
229 -> 231 ;
232 [label="active.max <= 1528526.425\ngini = 0.195\nsamples = 128\nvalue = [11, 0, 0, 0, 0, 117]\nclass = XMRIGCC CryptoMiner"] ;
224 -> 232 ;
233 [label="flow_iat.max <= 764285.445\ngini = 0.48\nsamples = 15\nvalue = [11, 0, 0, 0, 0, 4]\nclass = Background"] ;
232 -> 233 ;
234 [label="gini = 0.0\nsamples = 4\nvalue = [0, 0, 0, 0, 0, 4]\nclass = XMRIGCC CryptoMiner"] ;
233 -> 234 ;
235 [label="gini = 0.496\nsamples = 11\nvalue = [11, 0, 0, 0, 0, 0]\nclass = Background"] ;
233 -> 235 ;
236 [label="flow_iat.std <= 6.322\ngini = 0.132\nsamples = 113\nvalue = [0, 0, 0, 0, 0, 113]\nclass = XMRIGCC CryptoMiner"] ;
232 -> 236 ;
237 [label="gini = 0.375\nsamples = 8\nvalue = [0, 0, 0, 0, 0, 8]\nclass = XMRIGCC CryptoMiner"] ;
236 -> 237 ;
238 [label="gini = 0.108\nsamples = 105\nvalue = [0, 0, 0, 0, 0, 105]\nclass = XMRIGCC CryptoMiner"] ;
236 -> 238 ;
239 [label="fwd_iat.std <= 64.653\ngini = 0.048\nsamples = 2295\nvalue = [0, 0, 0, 0, 0, 2295]\nclass = XMRIGCC CryptoMiner"] ;
223 -> 239 ;
240 [label="flow_iat.min <= 764286.041\ngini = 0.028\nsamples = 976\nvalue = [0, 0, 0, 0, 0, 976]\nclass = XMRIGCC CryptoMiner"] ;
239 -> 240 ;
241 [label="flow_iat.max <= 764346.48\ngini = 0.008\nsamples = 487\nvalue = [0, 0, 0, 0, 0, 487]\nclass = XMRIGCC CryptoMiner"] ;
240 -> 241 ;
242 [label="gini = 0.0\nsamples = 438\nvalue = [0, 0, 0, 0, 0, 438]\nclass = XMRIGCC CryptoMiner"] ;
241 -> 242 ;
243 [label="gini = 0.078\nsamples = 49\nvalue = [0, 0, 0, 0, 0, 49]\nclass = XMRIGCC CryptoMiner"] ;
241 -> 243 ;
244 [label="flow_pkts_per_sec <= 1.963\ngini = 0.048\nsamples = 489\nvalue = [0, 0, 0, 0, 0, 489]\nclass = XMRIGCC CryptoMiner"] ;
240 -> 244 ;
245 [label="gini = 0.018\nsamples = 326\nvalue = [0, 0, 0, 0, 0, 326]\nclass = XMRIGCC CryptoMiner"] ;
244 -> 245 ;
246 [label="gini = 0.104\nsamples = 163\nvalue = [0, 0, 0, 0, 0, 163]\nclass = XMRIGCC CryptoMiner"] ;
244 -> 246 ;
247 [label="flow_iat.std <= 78.309\ngini = 0.062\nsamples = 1319\nvalue = [0, 0, 0, 0, 0, 1319]\nclass = XMRIGCC CryptoMiner"] ;
239 -> 247 ;
248 [label="active.avg <= 1528617.144\ngini = 0.117\nsamples = 240\nvalue = [0, 0, 0, 0, 0, 240]\nclass = XMRIGCC CryptoMiner"] ;
247 -> 248 ;
249 [label="gini = 0.035\nsamples = 113\nvalue = [0, 0, 0, 0, 0, 113]\nclass = XMRIGCC CryptoMiner"] ;
248 -> 249 ;
250 [label="gini = 0.184\nsamples = 127\nvalue = [0, 0, 0, 0, 0, 127]\nclass = XMRIGCC CryptoMiner"] ;
248 -> 250 ;
251 [label="flow_iat.max <= 764336.944\ngini = 0.049\nsamples = 1079\nvalue = [0, 0, 0, 0, 0, 1079]\nclass = XMRIGCC CryptoMiner"] ;
247 -> 251 ;
252 [label="gini = 0.278\nsamples = 12\nvalue = [0, 0, 0, 0, 0, 12]\nclass = XMRIGCC CryptoMiner"] ;
251 -> 252 ;
253 [label="gini = 0.046\nsamples = 1067\nvalue = [0, 0, 0, 0, 0, 1067]\nclass = XMRIGCC CryptoMiner"] ;
251 -> 253 ;
254 [label="fwd_iat.std <= 7807.114\ngini = 0.245\nsamples = 28\nvalue = [4, 0, 0, 0, 0, 24]\nclass = XMRIGCC CryptoMiner"] ;
222 -> 254 ;
255 [label="fwd_iat.std <= 3418.784\ngini = 0.49\nsamples = 7\nvalue = [4, 0, 0, 0, 0, 3]\nclass = Background"] ;
254 -> 255 ;
256 [label="flow_iat.std <= 1676.517\ngini = 0.48\nsamples = 5\nvalue = [2, 0, 0, 0, 0, 3]\nclass = XMRIGCC CryptoMiner"] ;
255 -> 256 ;
257 [label="fwd_iat.std <= 546.729\ngini = 0.444\nsamples = 3\nvalue = [2, 0, 0, 0, 0, 1]\nclass = Background"] ;
256 -> 257 ;
258 [label="gini = 0.0\nsamples = 1\nvalue = [0, 0, 0, 0, 0, 1]\nclass = XMRIGCC CryptoMiner"] ;
257 -> 258 ;
259 [label="gini = 0.0\nsamples = 2\nvalue = [2, 0, 0, 0, 0, 0]\nclass = Background"] ;
257 -> 259 ;
260 [label="gini = 0.0\nsamples = 2\nvalue = [0, 0, 0, 0, 0, 2]\nclass = XMRIGCC CryptoMiner"] ;
256 -> 260 ;
261 [label="gini = 0.0\nsamples = 2\nvalue = [2, 0, 0, 0, 0, 0]\nclass = Background"] ;
255 -> 261 ;
262 [label="gini = 0.0\nsamples = 21\nvalue = [0, 0, 0, 0, 0, 21]\nclass = XMRIGCC CryptoMiner"] ;
254 -> 262 ;
263 [label="fwd_pkts_payload.avg <= 175.0\ngini = 0.392\nsamples = 58\nvalue = [1, 14, 0, 0, 0, 43]\nclass = XMRIGCC CryptoMiner"] ;
191 -> 263 ;
264 [label="flow_pkts_payload.tot <= 177.0\ngini = 0.124\nsamples = 15\nvalue = [1, 14, 0, 0, 0, 0]\nclass = Benign"] ;
263 -> 264 ;
265 [label="gini = 0.0\nsamples = 1\nvalue = [1, 0, 0, 0, 0, 0]\nclass = Background"] ;
264 -> 265 ;
266 [label="gini = 0.0\nsamples = 14\nvalue = [0, 14, 0, 0, 0, 0]\nclass = Benign"] ;
264 -> 266 ;
267 [label="gini = 0.0\nsamples = 43\nvalue = [0, 0, 0, 0, 0, 43]\nclass = XMRIGCC CryptoMiner"] ;
263 -> 267 ;
268 [label="active.min <= 1877314.925\ngini = 0.649\nsamples = 37\nvalue = [12, 9, 0, 0, 0, 16]\nclass = XMRIGCC CryptoMiner"] ;
190 -> 268 ;
269 [label="flow_pkts_payload.max <= 266.0\ngini = 0.499\nsamples = 23\nvalue = [2, 6, 0, 0, 0, 15]\nclass = XMRIGCC CryptoMiner"] ;
268 -> 269 ;
270 [label="fwd_pkts_payload.tot <= 864.0\ngini = 0.355\nsamples = 19\nvalue = [2, 2, 0, 0, 0, 15]\nclass = XMRIGCC CryptoMiner"] ;
269 -> 270 ;
271 [label="fwd_data_pkts_tot <= 5.0\ngini = 0.64\nsamples = 5\nvalue = [2, 2, 0, 0, 0, 1]\nclass = Background"] ;
270 -> 271 ;
272 [label="gini = 0.0\nsamples = 2\nvalue = [2, 0, 0, 0, 0, 0]\nclass = Background"] ;
271 -> 272 ;
273 [label="payload_bytes_per_second <= 7.051\ngini = 0.444\nsamples = 3\nvalue = [0, 2, 0, 0, 0, 1]\nclass = Benign"] ;
271 -> 273 ;
274 [label="gini = 0.0\nsamples = 2\nvalue = [0, 2, 0, 0, 0, 0]\nclass = Benign"] ;
273 -> 274 ;
275 [label="gini = 0.0\nsamples = 1\nvalue = [0, 0, 0, 0, 0, 1]\nclass = XMRIGCC CryptoMiner"] ;
273 -> 275 ;
276 [label="gini = 0.0\nsamples = 14\nvalue = [0, 0, 0, 0, 0, 14]\nclass = XMRIGCC CryptoMiner"] ;
270 -> 276 ;
277 [label="gini = 0.0\nsamples = 4\nvalue = [0, 4, 0, 0, 0, 0]\nclass = Benign"] ;
269 -> 277 ;
278 [label="fwd_pkts_per_sec <= 5.58\ngini = 0.439\nsamples = 14\nvalue = [10, 3, 0, 0, 0, 1]\nclass = Background"] ;
268 -> 278 ;
279 [label="idle.tot <= 3518276.453\ngini = 0.165\nsamples = 11\nvalue = [10, 0, 0, 0, 0, 1]\nclass = Background"] ;
278 -> 279 ;
280 [label="gini = -0.0\nsamples = 10\nvalue = [10, 0, 0, 0, 0, 0]\nclass = Background"] ;
279 -> 280 ;
281 [label="gini = 0.0\nsamples = 1\nvalue = [0, 0, 0, 0, 0, 1]\nclass = XMRIGCC CryptoMiner"] ;
279 -> 281 ;
282 [label="gini = 0.0\nsamples = 3\nvalue = [0, 3, 0, 0, 0, 0]\nclass = Benign"] ;
278 -> 282 ;
283 [label="fwd_init_window_size <= 30980.5\ngini = 0.531\nsamples = 8632\nvalue = [4030, 4338, 115, 44, 105, 0]\nclass = Benign"] ;
3 -> 283 ;
284 [label="fwd_pkts_payload.avg <= 34.542\ngini = 0.509\nsamples = 6949\nvalue = [4011, 2716, 115, 2, 105, 0]\nclass = Background"] ;
283 -> 284 ;
285 [label="flow_iat.avg <= 64.85\ngini = 0.349\nsamples = 3025\nvalue = [2501, 524, 0, 0, 0, 0]\nclass = Background"] ;
284 -> 285 ;
286 [label="bwd_init_window_size <= 14632.0\ngini = 0.5\nsamples = 448\nvalue = [153, 295, 0, 0, 0, 0]\nclass = Benign"] ;
285 -> 286 ;
287 [label="flow_iat.avg <= 42.081\ngini = 0.494\nsamples = 407\nvalue = [117, 290, 0, 0, 0, 0]\nclass = Benign"] ;
286 -> 287 ;
288 [label="flow_ACK_flag_count <= 0.5\ngini = 0.419\nsamples = 97\nvalue = [7, 90, 0, 0, 0, 0]\nclass = Benign"] ;
287 -> 288 ;
289 [label="gini = -0.0\nsamples = 5\nvalue = [5, 0, 0, 0, 0, 0]\nclass = Background"] ;
288 -> 289 ;
290 [label="fwd_last_window_size <= 7016.0\ngini = 0.386\nsamples = 92\nvalue = [2, 90, 0, 0, 0, 0]\nclass = Benign"] ;
288 -> 290 ;
291 [label="flow_pkts_payload.tot <= 64.5\ngini = 0.124\nsamples = 15\nvalue = [1, 14, 0, 0, 0, 0]\nclass = Benign"] ;
290 -> 291 ;
292 [label="gini = 0.0\nsamples = 14\nvalue = [0, 14, 0, 0, 0, 0]\nclass = Benign"] ;
291 -> 292 ;
293 [label="gini = 0.0\nsamples = 1\nvalue = [1, 0, 0, 0, 0, 0]\nclass = Background"] ;
291 -> 293 ;
294 [label="flow_iat.min <= 40.531\ngini = 0.419\nsamples = 77\nvalue = [1, 76, 0, 0, 0, 0]\nclass = Benign"] ;
290 -> 294 ;
295 [label="flow_iat.min <= 25.034\ngini = 0.444\nsamples = 69\nvalue = [1, 68, 0, 0, 0, 0]\nclass = Benign"] ;
294 -> 295 ;
296 [label="gini = 0.0\nsamples = 1\nvalue = [1, 0, 0, 0, 0, 0]\nclass = Background"] ;
295 -> 296 ;
297 [label="flow_iat.min <= 31.948\ngini = 0.438\nsamples = 68\nvalue = [0, 68, 0, 0, 0, 0]\nclass = Benign"] ;
295 -> 297 ;
298 [label="gini = 0.0\nsamples = 3\nvalue = [0, 3, 0, 0, 0, 0]\nclass = Benign"] ;
297 -> 298 ;
299 [label="gini = 0.448\nsamples = 65\nvalue = [0, 65, 0, 0, 0, 0]\nclass = Benign"] ;
297 -> 299 ;
300 [label="gini = 0.0\nsamples = 8\nvalue = [0, 8, 0, 0, 0, 0]\nclass = Benign"] ;
294 -> 300 ;
301 [label="active.tot <= 43.988\ngini = 0.5\nsamples = 310\nvalue = [110, 200, 0, 0, 0, 0]\nclass = Benign"] ;
287 -> 301 ;
302 [label="active.avg <= 42.915\ngini = 0.435\nsamples = 25\nvalue = [25, 0, 0, 0, 0, 0]\nclass = Background"] ;
301 -> 302 ;
303 [label="active.min <= 42.439\ngini = 0.455\nsamples = 20\nvalue = [20, 0, 0, 0, 0, 0]\nclass = Background"] ;
302 -> 303 ;
304 [label="gini = 0.426\nsamples = 13\nvalue = [13, 0, 0, 0, 0, 0]\nclass = Background"] ;
303 -> 304 ;
305 [label="gini = 0.49\nsamples = 7\nvalue = [7, 0, 0, 0, 0, 0]\nclass = Background"] ;
303 -> 305 ;
306 [label="gini = 0.32\nsamples = 5\nvalue = [5, 0, 0, 0, 0, 0]\nclass = Background"] ;
302 -> 306 ;
307 [label="bwd_pkts_per_sec <= 20574.512\ngini = 0.499\nsamples = 285\nvalue = [85, 200, 0, 0, 0, 0]\nclass = Benign"] ;
301 -> 307 ;
308 [label="fwd_last_window_size <= 8845.0\ngini = 0.5\nsamples = 266\nvalue = [85, 181, 0, 0, 0, 0]\nclass = Benign"] ;
307 -> 308 ;
309 [label="gini = 0.0\nsamples = 2\nvalue = [0, 2, 0, 0, 0, 0]\nclass = Benign"] ;
308 -> 309 ;
310 [label="fwd_header_size_tot <= 30.0\ngini = 0.5\nsamples = 264\nvalue = [85, 179, 0, 0, 0, 0]\nclass = Benign"] ;
308 -> 310 ;
311 [label="gini = 0.0\nsamples = 1\nvalue = [1, 0, 0, 0, 0, 0]\nclass = Background"] ;
310 -> 311 ;
312 [label="flow_iat.min <= 60.439\ngini = 0.5\nsamples = 263\nvalue = [84, 179, 0, 0, 0, 0]\nclass = Benign"] ;
310 -> 312 ;
313 [label="gini = 0.498\nsamples = 179\nvalue = [0, 179, 0, 0, 0, 0]\nclass = Benign"] ;
312 -> 313 ;
314 [label="gini = 0.499\nsamples = 84\nvalue = [84, 0, 0, 0, 0, 0]\nclass = Background"] ;
312 -> 314 ;
315 [label="flow_duration <= 0.0\ngini = 0.432\nsamples = 19\nvalue = [0, 19, 0, 0, 0, 0]\nclass = Benign"] ;
307 -> 315 ;
316 [label="gini = 0.444\nsamples = 12\nvalue = [0, 12, 0, 0, 0, 0]\nclass = Benign"] ;
315 -> 316 ;
317 [label="gini = 0.408\nsamples = 7\nvalue = [0, 7, 0, 0, 0, 0]\nclass = Benign"] ;
315 -> 317 ;
318 [label="bwd_init_window_size <= 47180.0\ngini = 0.214\nsamples = 41\nvalue = [36, 5, 0, 0, 0, 0]\nclass = Background"] ;
286 -> 318 ;
319 [label="gini = 0.0\nsamples = 32\nvalue = [32, 0, 0, 0, 0, 0]\nclass = Background"] ;
318 -> 319 ;
320 [label="bwd_header_size_min <= 32.0\ngini = 0.494\nsamples = 9\nvalue = [4, 5, 0, 0, 0, 0]\nclass = Benign"] ;
318 -> 320 ;
321 [label="gini = 0.0\nsamples = 4\nvalue = [0, 4, 0, 0, 0, 0]\nclass = Benign"] ;
320 -> 321 ;
322 [label="flow_iat.max <= 15.497\ngini = 0.32\nsamples = 5\nvalue = [4, 1, 0, 0, 0, 0]\nclass = Background"] ;
320 -> 322 ;
323 [label="gini = 0.0\nsamples = 1\nvalue = [0, 1, 0, 0, 0, 0]\nclass = Benign"] ;
322 -> 323 ;
324 [label="gini = 0.0\nsamples = 4\nvalue = [4, 0, 0, 0, 0, 0]\nclass = Background"] ;
322 -> 324 ;
325 [label="flow_iat.min <= 23.484\ngini = 0.288\nsamples = 2577\nvalue = [2348, 229, 0, 0, 0, 0]\nclass = Background"] ;
285 -> 325 ;
326 [label="flow_pkts_payload.std <= 41.943\ngini = 0.467\nsamples = 377\nvalue = [212, 165, 0, 0, 0, 0]\nclass = Background"] ;
325 -> 326 ;
327 [label="bwd_pkts_per_sec <= 75.178\ngini = 0.496\nsamples = 183\nvalue = [69, 114, 0, 0, 0, 0]\nclass = Benign"] ;
326 -> 327 ;
328 [label="fwd_pkts_payload.avg <= 30.5\ngini = 0.382\nsamples = 70\nvalue = [49, 21, 0, 0, 0, 0]\nclass = Background"] ;
327 -> 328 ;
329 [label="bwd_pkts_payload.avg <= 92.5\ngini = 0.153\nsamples = 36\nvalue = [33, 3, 0, 0, 0, 0]\nclass = Background"] ;
328 -> 329 ;
330 [label="bwd_iat.avg <= 252576.47\ngini = 0.059\nsamples = 33\nvalue = [32, 1, 0, 0, 0, 0]\nclass = Background"] ;
329 -> 330 ;
331 [label="gini = 0.0\nsamples = 29\nvalue = [29, 0, 0, 0, 0, 0]\nclass = Background"] ;
330 -> 331 ;
332 [label="active.avg <= 352480.888\ngini = 0.375\nsamples = 4\nvalue = [3, 1, 0, 0, 0, 0]\nclass = Background"] ;
330 -> 332 ;
333 [label="gini = 0.0\nsamples = 1\nvalue = [0, 1, 0, 0, 0, 0]\nclass = Benign"] ;
332 -> 333 ;
334 [label="gini = 0.0\nsamples = 3\nvalue = [3, 0, 0, 0, 0, 0]\nclass = Background"] ;
332 -> 334 ;
335 [label="bwd_pkts_per_sec <= 71.299\ngini = 0.444\nsamples = 3\nvalue = [1, 2, 0, 0, 0, 0]\nclass = Benign"] ;
329 -> 335 ;
336 [label="gini = 0.0\nsamples = 2\nvalue = [0, 2, 0, 0, 0, 0]\nclass = Benign"] ;
335 -> 336 ;
337 [label="gini = 0.0\nsamples = 1\nvalue = [1, 0, 0, 0, 0, 0]\nclass = Background"] ;
335 -> 337 ;
338 [label="fwd_iat.min <= 14.544\ngini = 0.493\nsamples = 34\nvalue = [16, 18, 0, 0, 0, 0]\nclass = Benign"] ;
328 -> 338 ;
339 [label="fwd_iat.min <= 13.471\ngini = 0.219\nsamples = 8\nvalue = [1, 7, 0, 0, 0, 0]\nclass = Benign"] ;
338 -> 339 ;
340 [label="active.min <= 33066.034\ngini = 0.5\nsamples = 2\nvalue = [1, 1, 0, 0, 0, 0]\nclass = Background"] ;
339 -> 340 ;
341 [label="gini = 0.0\nsamples = 1\nvalue = [0, 1, 0, 0, 0, 0]\nclass = Benign"] ;
340 -> 341 ;
342 [label="gini = 0.0\nsamples = 1\nvalue = [1, 0, 0, 0, 0, 0]\nclass = Background"] ;
340 -> 342 ;
343 [label="gini = 0.0\nsamples = 6\nvalue = [0, 6, 0, 0, 0, 0]\nclass = Benign"] ;
339 -> 343 ;
344 [label="flow_pkts_payload.max <= 97.0\ngini = 0.426\nsamples = 26\nvalue = [15, 11, 0, 0, 0, 0]\nclass = Background"] ;
338 -> 344 ;
345 [label="bwd_pkts_payload.max <= 86.5\ngini = 0.494\nsamples = 18\nvalue = [7, 11, 0, 0, 0, 0]\nclass = Benign"] ;
344 -> 345 ;
346 [label="gini = 0.0\nsamples = 7\nvalue = [7, 0, 0, 0, 0, 0]\nclass = Background"] ;
345 -> 346 ;
347 [label="gini = 0.397\nsamples = 11\nvalue = [0, 11, 0, 0, 0, 0]\nclass = Benign"] ;
345 -> 347 ;
348 [label="gini = 0.0\nsamples = 8\nvalue = [8, 0, 0, 0, 0, 0]\nclass = Background"] ;
344 -> 348 ;
349 [label="bwd_pkts_payload.std <= 19.799\ngini = 0.398\nsamples = 113\nvalue = [20, 93, 0, 0, 0, 0]\nclass = Benign"] ;
327 -> 349 ;
350 [label="payload_bytes_per_second <= 6995.749\ngini = 0.375\nsamples = 12\nvalue = [9, 3, 0, 0, 0, 0]\nclass = Background"] ;
349 -> 350 ;
351 [label="gini = 0.0\nsamples = 2\nvalue = [0, 2, 0, 0, 0, 0]\nclass = Benign"] ;
350 -> 351 ;
352 [label="flow_iat.min <= 19.55\ngini = 0.18\nsamples = 10\nvalue = [9, 1, 0, 0, 0, 0]\nclass = Background"] ;
350 -> 352 ;
353 [label="gini = 0.0\nsamples = 9\nvalue = [9, 0, 0, 0, 0, 0]\nclass = Background"] ;
352 -> 353 ;
354 [label="gini = 0.0\nsamples = 1\nvalue = [0, 1, 0, 0, 0, 0]\nclass = Benign"] ;
352 -> 354 ;
355 [label="flow_pkts_payload.std <= 27.152\ngini = 0.341\nsamples = 101\nvalue = [11, 90, 0, 0, 0, 0]\nclass = Benign"] ;
349 -> 355 ;
356 [label="gini = 0.0\nsamples = 36\nvalue = [0, 36, 0, 0, 0, 0]\nclass = Benign"] ;
355 -> 356 ;
357 [label="bwd_pkts_payload.min <= 73.0\ngini = 0.448\nsamples = 65\nvalue = [11, 54, 0, 0, 0, 0]\nclass = Benign"] ;
355 -> 357 ;
358 [label="bwd_pkts_per_sec <= 79.267\ngini = 0.48\nsamples = 30\nvalue = [11, 19, 0, 0, 0, 0]\nclass = Benign"] ;
357 -> 358 ;
359 [label="gini = 0.465\nsamples = 19\nvalue = [0, 19, 0, 0, 0, 0]\nclass = Benign"] ;
358 -> 359 ;
360 [label="gini = 0.0\nsamples = 11\nvalue = [11, 0, 0, 0, 0, 0]\nclass = Background"] ;
358 -> 360 ;
361 [label="flow_iat.std <= 14601.963\ngini = 0.202\nsamples = 35\nvalue = [0, 35, 0, 0, 0, 0]\nclass = Benign"] ;
357 -> 361 ;
362 [label="gini = 0.071\nsamples = 27\nvalue = [0, 27, 0, 0, 0, 0]\nclass = Benign"] ;
361 -> 362 ;
363 [label="gini = 0.469\nsamples = 8\nvalue = [0, 8, 0, 0, 0, 0]\nclass = Benign"] ;
361 -> 363 ;
364 [label="flow_pkts_payload.avg <= 97.353\ngini = 0.327\nsamples = 194\nvalue = [143, 51, 0, 0, 0, 0]\nclass = Background"] ;
326 -> 364 ;
365 [label="active.max <= 23781.657\ngini = 0.141\nsamples = 118\nvalue = [104, 14, 0, 0, 0, 0]\nclass = Background"] ;
364 -> 365 ;
366 [label="gini = 0.0\nsamples = 2\nvalue = [0, 2, 0, 0, 0, 0]\nclass = Benign"] ;
365 -> 366 ;
367 [label="bwd_pkts_payload.std <= 25.102\ngini = 0.113\nsamples = 116\nvalue = [104, 12, 0, 0, 0, 0]\nclass = Background"] ;
365 -> 367 ;
368 [label="bwd_pkts_payload.std <= 10.96\ngini = 0.237\nsamples = 51\nvalue = [39, 12, 0, 0, 0, 0]\nclass = Background"] ;
367 -> 368 ;
369 [label="gini = 0.0\nsamples = 29\nvalue = [29, 0, 0, 0, 0, 0]\nclass = Background"] ;
368 -> 369 ;
370 [label="flow_pkts_payload.std <= 48.318\ngini = 0.434\nsamples = 22\nvalue = [10, 12, 0, 0, 0, 0]\nclass = Benign"] ;
368 -> 370 ;
371 [label="gini = -0.0\nsamples = 10\nvalue = [10, 0, 0, 0, 0, 0]\nclass = Background"] ;
370 -> 371 ;
372 [label="gini = 0.486\nsamples = 12\nvalue = [0, 12, 0, 0, 0, 0]\nclass = Benign"] ;
370 -> 372 ;
373 [label="gini = 0.0\nsamples = 65\nvalue = [65, 0, 0, 0, 0, 0]\nclass = Background"] ;
367 -> 373 ;
374 [label="bwd_iat.max <= 15.974\ngini = 0.483\nsamples = 76\nvalue = [39, 37, 0, 0, 0, 0]\nclass = Background"] ;
364 -> 374 ;
375 [label="gini = 0.0\nsamples = 9\nvalue = [0, 9, 0, 0, 0, 0]\nclass = Benign"] ;
374 -> 375 ;
376 [label="bwd_iat.max <= 179944.158\ngini = 0.441\nsamples = 67\nvalue = [39, 28, 0, 0, 0, 0]\nclass = Background"] ;
374 -> 376 ;
377 [label="bwd_pkts_per_sec <= 60.22\ngini = 0.488\nsamples = 52\nvalue = [24, 28, 0, 0, 0, 0]\nclass = Benign"] ;
376 -> 377 ;
378 [label="fwd_iat.min <= 19.55\ngini = 0.26\nsamples = 13\nvalue = [1, 12, 0, 0, 0, 0]\nclass = Benign"] ;
377 -> 378 ;
379 [label="gini = 0.153\nsamples = 12\nvalue = [0, 12, 0, 0, 0, 0]\nclass = Benign"] ;
378 -> 379 ;
380 [label="gini = 0.0\nsamples = 1\nvalue = [1, 0, 0, 0, 0, 0]\nclass = Background"] ;
378 -> 380 ;
381 [label="fwd_iat.min <= 17.524\ngini = 0.405\nsamples = 39\nvalue = [23, 16, 0, 0, 0, 0]\nclass = Background"] ;
377 -> 381 ;
382 [label="gini = 0.159\nsamples = 23\nvalue = [23, 0, 0, 0, 0, 0]\nclass = Background"] ;
381 -> 382 ;
383 [label="gini = 0.492\nsamples = 16\nvalue = [0, 16, 0, 0, 0, 0]\nclass = Benign"] ;
381 -> 383 ;
384 [label="gini = 0.0\nsamples = 15\nvalue = [15, 0, 0, 0, 0, 0]\nclass = Background"] ;
376 -> 384 ;
385 [label="flow_RST_flag_count <= 1.5\ngini = 0.241\nsamples = 2200\nvalue = [2136, 64, 0, 0, 0, 0]\nclass = Background"] ;
325 -> 385 ;
386 [label="fwd_pkts_per_sec <= 11307.412\ngini = 0.232\nsamples = 2184\nvalue = [2136, 48, 0, 0, 0, 0]\nclass = Background"] ;
385 -> 386 ;
387 [label="bwd_pkts_payload.std <= 28.638\ngini = 0.18\nsamples = 1587\nvalue = [1547, 40, 0, 0, 0, 0]\nclass = Background"] ;
386 -> 387 ;
388 [label="bwd_pkts_payload.std <= 27.02\ngini = 0.197\nsamples = 1436\nvalue = [1396, 40, 0, 0, 0, 0]\nclass = Background"] ;
387 -> 388 ;
389 [label="flow_iat.min <= 12854.099\ngini = 0.189\nsamples = 1404\nvalue = [1377, 27, 0, 0, 0, 0]\nclass = Background"] ;
388 -> 389 ;
390 [label="flow_iat.min <= 28.61\ngini = 0.179\nsamples = 1340\nvalue = [1340, 0, 0, 0, 0, 0]\nclass = Background"] ;
389 -> 390 ;
391 [label="gini = 0.344\nsamples = 59\nvalue = [59, 0, 0, 0, 0, 0]\nclass = Background"] ;
390 -> 391 ;
392 [label="gini = 0.17\nsamples = 1281\nvalue = [1281, 0, 0, 0, 0, 0]\nclass = Background"] ;
390 -> 392 ;
393 [label="flow_pkts_per_sec <= 79.976\ngini = 0.359\nsamples = 64\nvalue = [37, 27, 0, 0, 0, 0]\nclass = Background"] ;
389 -> 393 ;
394 [label="gini = -0.0\nsamples = 37\nvalue = [37, 0, 0, 0, 0, 0]\nclass = Background"] ;
393 -> 394 ;
395 [label="gini = 0.494\nsamples = 27\nvalue = [0, 27, 0, 0, 0, 0]\nclass = Benign"] ;
393 -> 395 ;
396 [label="payload_bytes_per_second <= 8199.426\ngini = 0.451\nsamples = 32\nvalue = [19, 13, 0, 0, 0, 0]\nclass = Background"] ;
388 -> 396 ;
397 [label="fwd_pkts_payload.tot <= 58.0\ngini = 0.457\nsamples = 17\nvalue = [4, 13, 0, 0, 0, 0]\nclass = Benign"] ;
396 -> 397 ;
398 [label="gini = 0.0\nsamples = 4\nvalue = [4, 0, 0, 0, 0, 0]\nclass = Background"] ;
397 -> 398 ;
399 [label="gini = 0.26\nsamples = 13\nvalue = [0, 13, 0, 0, 0, 0]\nclass = Benign"] ;
397 -> 399 ;
400 [label="gini = 0.0\nsamples = 15\nvalue = [15, 0, 0, 0, 0, 0]\nclass = Background"] ;
396 -> 400 ;
401 [label="gini = 0.0\nsamples = 151\nvalue = [151, 0, 0, 0, 0, 0]\nclass = Background"] ;
387 -> 401 ;
402 [label="bwd_init_window_size <= 14600.0\ngini = 0.348\nsamples = 597\nvalue = [589, 8, 0, 0, 0, 0]\nclass = Background"] ;
386 -> 402 ;
403 [label="fwd_pkts_per_sec <= 12439.608\ngini = 0.403\nsamples = 479\nvalue = [471, 8, 0, 0, 0, 0]\nclass = Background"] ;
402 -> 403 ;
404 [label="fwd_header_size_min <= 36.0\ngini = 0.353\nsamples = 258\nvalue = [257, 1, 0, 0, 0, 0]\nclass = Background"] ;
403 -> 404 ;
405 [label="gini = 0.0\nsamples = 1\nvalue = [0, 1, 0, 0, 0, 0]\nclass = Benign"] ;
404 -> 405 ;
406 [label="flow_pkts_per_sec <= 23991.149\ngini = 0.349\nsamples = 257\nvalue = [257, 0, 0, 0, 0, 0]\nclass = Background"] ;
404 -> 406 ;
407 [label="gini = 0.358\nsamples = 218\nvalue = [218, 0, 0, 0, 0, 0]\nclass = Background"] ;
406 -> 407 ;
408 [label="gini = 0.295\nsamples = 39\nvalue = [39, 0, 0, 0, 0, 0]\nclass = Background"] ;
406 -> 408 ;
409 [label="flow_iat.min <= 72.598\ngini = 0.448\nsamples = 221\nvalue = [214, 7, 0, 0, 0, 0]\nclass = Background"] ;
403 -> 409 ;
410 [label="fwd_header_size_max <= 30.0\ngini = 0.349\nsamples = 111\nvalue = [110, 1, 0, 0, 0, 0]\nclass = Background"] ;
409 -> 410 ;
411 [label="gini = 0.0\nsamples = 1\nvalue = [0, 1, 0, 0, 0, 0]\nclass = Benign"] ;
410 -> 411 ;
412 [label="gini = 0.341\nsamples = 110\nvalue = [110, 0, 0, 0, 0, 0]\nclass = Background"] ;
410 -> 412 ;
413 [label="flow_iat.avg <= 77.605\ngini = 0.496\nsamples = 110\nvalue = [104, 6, 0, 0, 0, 0]\nclass = Background"] ;
409 -> 413 ;
414 [label="gini = 0.488\nsamples = 104\nvalue = [104, 0, 0, 0, 0, 0]\nclass = Background"] ;
413 -> 414 ;
415 [label="gini = 0.0\nsamples = 6\nvalue = [0, 6, 0, 0, 0, 0]\nclass = Benign"] ;
413 -> 415 ;
416 [label="gini = 0.0\nsamples = 118\nvalue = [118, 0, 0, 0, 0, 0]\nclass = Background"] ;
402 -> 416 ;
417 [label="gini = 0.0\nsamples = 16\nvalue = [0, 16, 0, 0, 0, 0]\nclass = Benign"] ;
385 -> 417 ;
418 [label="fwd_pkts_payload.avg <= 36.5\ngini = 0.554\nsamples = 3924\nvalue = [1510, 2192, 115, 2, 105, 0]\nclass = Benign"] ;
284 -> 418 ;
419 [label="flow_pkts_payload.tot <= 223.0\ngini = 0.269\nsamples = 1218\nvalue = [167, 1051, 0, 0, 0, 0]\nclass = Benign"] ;
418 -> 419 ;
420 [label="flow_iat.std <= 15063.278\ngini = 0.122\nsamples = 984\nvalue = [35, 949, 0, 0, 0, 0]\nclass = Benign"] ;
419 -> 420 ;
421 [label="bwd_pkts_payload.max <= 97.5\ngini = 0.094\nsamples = 953\nvalue = [18, 935, 0, 0, 0, 0]\nclass = Benign"] ;
420 -> 421 ;
422 [label="fwd_pkts_payload.tot <= 35.5\ngini = 0.083\nsamples = 947\nvalue = [12, 935, 0, 0, 0, 0]\nclass = Benign"] ;
421 -> 422 ;
423 [label="gini = 0.0\nsamples = 4\nvalue = [4, 0, 0, 0, 0, 0]\nclass = Background"] ;
422 -> 423 ;
424 [label="fwd_iat.min <= 18.477\ngini = 0.075\nsamples = 943\nvalue = [8, 935, 0, 0, 0, 0]\nclass = Benign"] ;
422 -> 424 ;
425 [label="flow_pkts_payload.std <= 5.657\ngini = 0.043\nsamples = 780\nvalue = [4, 776, 0, 0, 0, 0]\nclass = Benign"] ;
424 -> 425 ;
426 [label="payload_bytes_per_second <= 112688.791\ngini = 0.5\nsamples = 6\nvalue = [4, 2, 0, 0, 0, 0]\nclass = Background"] ;
425 -> 426 ;
427 [label="gini = 0.375\nsamples = 4\nvalue = [4, 0, 0, 0, 0, 0]\nclass = Background"] ;
426 -> 427 ;
428 [label="gini = 0.0\nsamples = 2\nvalue = [0, 2, 0, 0, 0, 0]\nclass = Benign"] ;
426 -> 428 ;
429 [label="flow_duration <= 0.024\ngini = 0.036\nsamples = 774\nvalue = [0, 774, 0, 0, 0, 0]\nclass = Benign"] ;
425 -> 429 ;
430 [label="gini = 0.095\nsamples = 200\nvalue = [0, 200, 0, 0, 0, 0]\nclass = Benign"] ;
429 -> 430 ;
431 [label="gini = 0.014\nsamples = 574\nvalue = [0, 574, 0, 0, 0, 0]\nclass = Benign"] ;
429 -> 431 ;
432 [label="flow_iat.avg <= 8109.848\ngini = 0.215\nsamples = 163\nvalue = [4, 159, 0, 0, 0, 0]\nclass = Benign"] ;
424 -> 432 ;
433 [label="fwd_iat.min <= 34.571\ngini = 0.363\nsamples = 42\nvalue = [4, 38, 0, 0, 0, 0]\nclass = Benign"] ;
432 -> 433 ;
434 [label="gini = 0.266\nsamples = 38\nvalue = [0, 38, 0, 0, 0, 0]\nclass = Benign"] ;
433 -> 434 ;
435 [label="gini = 0.0\nsamples = 4\nvalue = [4, 0, 0, 0, 0, 0]\nclass = Background"] ;
433 -> 435 ;
436 [label="flow_iat.min <= 20.504\ngini = 0.152\nsamples = 121\nvalue = [0, 121, 0, 0, 0, 0]\nclass = Benign"] ;
432 -> 436 ;
437 [label="gini = -0.0\nsamples = 44\nvalue = [0, 44, 0, 0, 0, 0]\nclass = Benign"] ;
436 -> 437 ;
438 [label="gini = 0.226\nsamples = 77\nvalue = [0, 77, 0, 0, 0, 0]\nclass = Benign"] ;
436 -> 438 ;
439 [label="gini = 0.0\nsamples = 6\nvalue = [6, 0, 0, 0, 0, 0]\nclass = Background"] ;
421 -> 439 ;
440 [label="flow_iat.min <= 14.544\ngini = 0.495\nsamples = 31\nvalue = [17, 14, 0, 0, 0, 0]\nclass = Background"] ;
420 -> 440 ;
441 [label="gini = 0.0\nsamples = 6\nvalue = [0, 6, 0, 0, 0, 0]\nclass = Benign"] ;
440 -> 441 ;
442 [label="fwd_iat.min <= 14382.958\ngini = 0.435\nsamples = 25\nvalue = [17, 8, 0, 0, 0, 0]\nclass = Background"] ;
440 -> 442 ;
443 [label="fwd_iat.min <= 18.597\ngini = 0.351\nsamples = 22\nvalue = [17, 5, 0, 0, 0, 0]\nclass = Background"] ;
442 -> 443 ;
444 [label="fwd_iat.min <= 15.497\ngini = 0.5\nsamples = 8\nvalue = [4, 4, 0, 0, 0, 0]\nclass = Background"] ;
443 -> 444 ;
445 [label="gini = 0.0\nsamples = 2\nvalue = [2, 0, 0, 0, 0, 0]\nclass = Background"] ;
444 -> 445 ;
446 [label="flow_pkts_payload.min <= 35.5\ngini = 0.444\nsamples = 6\nvalue = [2, 4, 0, 0, 0, 0]\nclass = Benign"] ;
444 -> 446 ;
447 [label="gini = 0.0\nsamples = 2\nvalue = [2, 0, 0, 0, 0, 0]\nclass = Background"] ;
446 -> 447 ;
448 [label="gini = 0.0\nsamples = 4\nvalue = [0, 4, 0, 0, 0, 0]\nclass = Benign"] ;
446 -> 448 ;
449 [label="bwd_iat.tot <= 116826.534\ngini = 0.133\nsamples = 14\nvalue = [13, 1, 0, 0, 0, 0]\nclass = Background"] ;
443 -> 449 ;
450 [label="gini = 0.0\nsamples = 12\nvalue = [12, 0, 0, 0, 0, 0]\nclass = Background"] ;
449 -> 450 ;
451 [label="flow_iat.std <= 98037.676\ngini = 0.5\nsamples = 2\nvalue = [1, 1, 0, 0, 0, 0]\nclass = Background"] ;
449 -> 451 ;
452 [label="gini = 0.0\nsamples = 1\nvalue = [0, 1, 0, 0, 0, 0]\nclass = Benign"] ;
451 -> 452 ;
453 [label="gini = 0.0\nsamples = 1\nvalue = [1, 0, 0, 0, 0, 0]\nclass = Background"] ;
451 -> 453 ;
454 [label="gini = 0.0\nsamples = 3\nvalue = [0, 3, 0, 0, 0, 0]\nclass = Benign"] ;
442 -> 454 ;
455 [label="bwd_pkts_payload.std <= 24.042\ngini = 0.493\nsamples = 234\nvalue = [132, 102, 0, 0, 0, 0]\nclass = Background"] ;
419 -> 455 ;
456 [label="fwd_iat.min <= 13.59\ngini = 0.174\nsamples = 83\nvalue = [79, 4, 0, 0, 0, 0]\nclass = Background"] ;
455 -> 456 ;
457 [label="gini = 0.0\nsamples = 2\nvalue = [0, 2, 0, 0, 0, 0]\nclass = Benign"] ;
456 -> 457 ;
458 [label="flow_pkts_payload.std <= 118.622\ngini = 0.137\nsamples = 81\nvalue = [79, 2, 0, 0, 0, 0]\nclass = Background"] ;
456 -> 458 ;
459 [label="fwd_iat.max <= 23.365\ngini = 0.117\nsamples = 80\nvalue = [79, 1, 0, 0, 0, 0]\nclass = Background"] ;
458 -> 459 ;
460 [label="flow_pkts_per_sec <= 84.053\ngini = 0.285\nsamples = 29\nvalue = [28, 1, 0, 0, 0, 0]\nclass = Background"] ;
459 -> 460 ;
461 [label="gini = 0.0\nsamples = 1\nvalue = [0, 1, 0, 0, 0, 0]\nclass = Benign"] ;
460 -> 461 ;
462 [label="payload_bytes_per_second <= 9605.385\ngini = 0.245\nsamples = 28\nvalue = [28, 0, 0, 0, 0, 0]\nclass = Background"] ;
460 -> 462 ;
463 [label="gini = 0.0\nsamples = 14\nvalue = [14, 0, 0, 0, 0, 0]\nclass = Background"] ;
462 -> 463 ;
464 [label="gini = 0.408\nsamples = 14\nvalue = [14, 0, 0, 0, 0, 0]\nclass = Background"] ;
462 -> 464 ;
465 [label="gini = 0.0\nsamples = 51\nvalue = [51, 0, 0, 0, 0, 0]\nclass = Background"] ;
459 -> 465 ;
466 [label="gini = 0.0\nsamples = 1\nvalue = [0, 1, 0, 0, 0, 0]\nclass = Benign"] ;
458 -> 466 ;
467 [label="fwd_iat.min <= 35.524\ngini = 0.467\nsamples = 151\nvalue = [53, 98, 0, 0, 0, 0]\nclass = Benign"] ;
455 -> 467 ;
468 [label="payload_bytes_per_second <= 8518.951\ngini = 0.397\nsamples = 128\nvalue = [32, 96, 0, 0, 0, 0]\nclass = Benign"] ;
467 -> 468 ;
469 [label="active.min <= 237310.052\ngini = 0.491\nsamples = 23\nvalue = [14, 9, 0, 0, 0, 0]\nclass = Background"] ;
468 -> 469 ;
470 [label="fwd_iat.min <= 15.497\ngini = 0.36\nsamples = 17\nvalue = [14, 3, 0, 0, 0, 0]\nclass = Background"] ;
469 -> 470 ;
471 [label="gini = 0.0\nsamples = 3\nvalue = [0, 3, 0, 0, 0, 0]\nclass = Benign"] ;
470 -> 471 ;
472 [label="flow_iat.std <= 15152.567\ngini = 0.133\nsamples = 14\nvalue = [14, 0, 0, 0, 0, 0]\nclass = Background"] ;
470 -> 472 ;
473 [label="gini = 0.375\nsamples = 4\nvalue = [4, 0, 0, 0, 0, 0]\nclass = Background"] ;
472 -> 473 ;
474 [label="gini = 0.0\nsamples = 10\nvalue = [10, 0, 0, 0, 0, 0]\nclass = Background"] ;
472 -> 474 ;
475 [label="gini = 0.0\nsamples = 6\nvalue = [0, 6, 0, 0, 0, 0]\nclass = Benign"] ;
469 -> 475 ;
476 [label="flow_iat.min <= 25.392\ngini = 0.331\nsamples = 105\nvalue = [18, 87, 0, 0, 0, 0]\nclass = Benign"] ;
468 -> 476 ;
477 [label="bwd_pkts_payload.std <= 33.941\ngini = 0.268\nsamples = 94\nvalue = [10, 84, 0, 0, 0, 0]\nclass = Benign"] ;
476 -> 477 ;
478 [label="flow_iat.std <= 14343.823\ngini = 0.5\nsamples = 12\nvalue = [7, 5, 0, 0, 0, 0]\nclass = Background"] ;
477 -> 478 ;
479 [label="gini = 0.245\nsamples = 7\nvalue = [7, 0, 0, 0, 0, 0]\nclass = Background"] ;
478 -> 479 ;
480 [label="gini = 0.0\nsamples = 5\nvalue = [0, 5, 0, 0, 0, 0]\nclass = Benign"] ;
478 -> 480 ;
481 [label="bwd_iat.min <= 2839.088\ngini = 0.195\nsamples = 82\nvalue = [3, 79, 0, 0, 0, 0]\nclass = Benign"] ;
477 -> 481 ;
482 [label="gini = 0.162\nsamples = 79\nvalue = [0, 79, 0, 0, 0, 0]\nclass = Benign"] ;
481 -> 482 ;
483 [label="gini = 0.444\nsamples = 3\nvalue = [3, 0, 0, 0, 0, 0]\nclass = Background"] ;
481 -> 483 ;
484 [label="payload_bytes_per_second <= 11287.128\ngini = 0.463\nsamples = 11\nvalue = [8, 3, 0, 0, 0, 0]\nclass = Background"] ;
476 -> 484 ;
485 [label="fwd_iat.avg <= 25.988\ngini = 0.375\nsamples = 4\nvalue = [1, 3, 0, 0, 0, 0]\nclass = Benign"] ;
484 -> 485 ;
486 [label="gini = 0.0\nsamples = 3\nvalue = [0, 3, 0, 0, 0, 0]\nclass = Benign"] ;
485 -> 486 ;
487 [label="gini = 0.0\nsamples = 1\nvalue = [1, 0, 0, 0, 0, 0]\nclass = Background"] ;
485 -> 487 ;
488 [label="active.tot <= 24932.504\ngini = 0.245\nsamples = 7\nvalue = [7, 0, 0, 0, 0, 0]\nclass = Background"] ;
484 -> 488 ;
489 [label="gini = 0.444\nsamples = 3\nvalue = [3, 0, 0, 0, 0, 0]\nclass = Background"] ;
488 -> 489 ;
490 [label="gini = 0.0\nsamples = 4\nvalue = [4, 0, 0, 0, 0, 0]\nclass = Background"] ;
488 -> 490 ;
491 [label="flow_iat.max <= 27194.023\ngini = 0.159\nsamples = 23\nvalue = [21, 2, 0, 0, 0, 0]\nclass = Background"] ;
467 -> 491 ;
492 [label="gini = -0.0\nsamples = 20\nvalue = [20, 0, 0, 0, 0, 0]\nclass = Background"] ;
491 -> 492 ;
493 [label="fwd_iat.tot <= 36.955\ngini = 0.444\nsamples = 3\nvalue = [1, 2, 0, 0, 0, 0]\nclass = Benign"] ;
491 -> 493 ;
494 [label="gini = 0.0\nsamples = 2\nvalue = [0, 2, 0, 0, 0, 0]\nclass = Benign"] ;
493 -> 494 ;
495 [label="gini = 0.0\nsamples = 1\nvalue = [1, 0, 0, 0, 0, 0]\nclass = Background"] ;
493 -> 495 ;
496 [label="flow_iat.min <= 27.537\ngini = 0.55\nsamples = 2706\nvalue = [1343, 1141, 115, 2, 105, 0]\nclass = Background"] ;
418 -> 496 ;
497 [label="flow_pkts_payload.tot <= 7254.0\ngini = 0.613\nsamples = 1775\nvalue = [481, 1072, 115, 2, 105, 0]\nclass = Benign"] ;
496 -> 497 ;
498 [label="fwd_pkts_payload.avg <= 41.5\ngini = 0.502\nsamples = 1388\nvalue = [355, 1033, 0, 0, 0, 0]\nclass = Benign"] ;
497 -> 498 ;
499 [label="flow_iat.avg <= 8684.516\ngini = 0.344\nsamples = 195\nvalue = [161, 34, 0, 0, 0, 0]\nclass = Background"] ;
498 -> 499 ;
500 [label="flow_iat.max <= 24700.999\ngini = 0.486\nsamples = 72\nvalue = [43, 29, 0, 0, 0, 0]\nclass = Background"] ;
499 -> 500 ;
501 [label="bwd_pkts_payload.max <= 97.5\ngini = 0.337\nsamples = 42\nvalue = [34, 8, 0, 0, 0, 0]\nclass = Background"] ;
500 -> 501 ;
502 [label="gini = 0.0\nsamples = 4\nvalue = [0, 4, 0, 0, 0, 0]\nclass = Benign"] ;
501 -> 502 ;
503 [label="fwd_iat.min <= 34.928\ngini = 0.229\nsamples = 38\nvalue = [34, 4, 0, 0, 0, 0]\nclass = Background"] ;
501 -> 503 ;
504 [label="gini = 0.111\nsamples = 34\nvalue = [34, 0, 0, 0, 0, 0]\nclass = Background"] ;
503 -> 504 ;
505 [label="gini = 0.375\nsamples = 4\nvalue = [0, 4, 0, 0, 0, 0]\nclass = Benign"] ;
503 -> 505 ;
506 [label="flow_iat.min <= 19.431\ngini = 0.42\nsamples = 30\nvalue = [9, 21, 0, 0, 0, 0]\nclass = Benign"] ;
500 -> 506 ;
507 [label="bwd_pkts_payload.min <= 162.0\ngini = 0.1\nsamples = 19\nvalue = [1, 18, 0, 0, 0, 0]\nclass = Benign"] ;
506 -> 507 ;
508 [label="gini = 0.0\nsamples = 18\nvalue = [0, 18, 0, 0, 0, 0]\nclass = Benign"] ;
507 -> 508 ;
509 [label="gini = 0.0\nsamples = 1\nvalue = [1, 0, 0, 0, 0, 0]\nclass = Background"] ;
507 -> 509 ;
510 [label="bwd_iat.tot <= 144.482\ngini = 0.397\nsamples = 11\nvalue = [8, 3, 0, 0, 0, 0]\nclass = Background"] ;
506 -> 510 ;
511 [label="gini = 0.0\nsamples = 8\nvalue = [8, 0, 0, 0, 0, 0]\nclass = Background"] ;
510 -> 511 ;
512 [label="gini = 0.0\nsamples = 3\nvalue = [0, 3, 0, 0, 0, 0]\nclass = Benign"] ;
510 -> 512 ;
513 [label="fwd_iat.min <= 12.517\ngini = 0.189\nsamples = 123\nvalue = [118, 5, 0, 0, 0, 0]\nclass = Background"] ;
499 -> 513 ;
514 [label="gini = 0.0\nsamples = 3\nvalue = [0, 3, 0, 0, 0, 0]\nclass = Benign"] ;
513 -> 514 ;
515 [label="fwd_header_size_max <= 42.0\ngini = 0.153\nsamples = 120\nvalue = [118, 2, 0, 0, 0, 0]\nclass = Background"] ;
513 -> 515 ;
516 [label="bwd_pkts_payload.min <= 191.0\ngini = 0.14\nsamples = 119\nvalue = [118, 1, 0, 0, 0, 0]\nclass = Background"] ;
515 -> 516 ;
517 [label="gini = 0.126\nsamples = 118\nvalue = [118, 0, 0, 0, 0, 0]\nclass = Background"] ;
516 -> 517 ;
518 [label="gini = 0.0\nsamples = 1\nvalue = [0, 1, 0, 0, 0, 0]\nclass = Benign"] ;
516 -> 518 ;
519 [label="gini = 0.0\nsamples = 1\nvalue = [0, 1, 0, 0, 0, 0]\nclass = Benign"] ;
515 -> 519 ;
520 [label="fwd_last_window_size <= 178.5\ngini = 0.49\nsamples = 1193\nvalue = [194, 999, 0, 0, 0, 0]\nclass = Benign"] ;
498 -> 520 ;
521 [label="active.max <= 2126819.611\ngini = 0.499\nsamples = 1105\nvalue = [192, 913, 0, 0, 0, 0]\nclass = Benign"] ;
520 -> 521 ;
522 [label="flow_iat.avg <= 8043.17\ngini = 0.49\nsamples = 1008\nvalue = [112, 896, 0, 0, 0, 0]\nclass = Benign"] ;
521 -> 522 ;
523 [label="flow_iat.min <= 8.345\ngini = 0.33\nsamples = 72\nvalue = [59, 13, 0, 0, 0, 0]\nclass = Background"] ;
522 -> 523 ;
524 [label="gini = 0.355\nsamples = 13\nvalue = [0, 13, 0, 0, 0, 0]\nclass = Benign"] ;
523 -> 524 ;
525 [label="gini = 0.155\nsamples = 59\nvalue = [59, 0, 0, 0, 0, 0]\nclass = Background"] ;
523 -> 525 ;
526 [label="fwd_header_size_tot <= 466.0\ngini = 0.478\nsamples = 936\nvalue = [53, 883, 0, 0, 0, 0]\nclass = Benign"] ;
522 -> 526 ;
527 [label="gini = 0.467\nsamples = 883\nvalue = [0, 883, 0, 0, 0, 0]\nclass = Benign"] ;
526 -> 527 ;
528 [label="gini = 0.35\nsamples = 53\nvalue = [53, 0, 0, 0, 0, 0]\nclass = Background"] ;
526 -> 528 ;
529 [label="fwd_pkts_payload.tot <= 232.0\ngini = 0.302\nsamples = 97\nvalue = [80, 17, 0, 0, 0, 0]\nclass = Background"] ;
521 -> 529 ;
530 [label="bwd_iat.max <= 4997033.119\ngini = 0.397\nsamples = 11\nvalue = [3, 8, 0, 0, 0, 0]\nclass = Benign"] ;
529 -> 530 ;
531 [label="gini = 0.0\nsamples = 3\nvalue = [3, 0, 0, 0, 0, 0]\nclass = Background"] ;
530 -> 531 ;
532 [label="gini = 0.0\nsamples = 8\nvalue = [0, 8, 0, 0, 0, 0]\nclass = Benign"] ;
530 -> 532 ;
533 [label="idle.min <= 9013909.459\ngini = 0.206\nsamples = 86\nvalue = [77, 9, 0, 0, 0, 0]\nclass = Background"] ;
529 -> 533 ;
534 [label="gini = 0.121\nsamples = 77\nvalue = [77, 0, 0, 0, 0, 0]\nclass = Background"] ;
533 -> 534 ;
535 [label="gini = 0.494\nsamples = 9\nvalue = [0, 9, 0, 0, 0, 0]\nclass = Benign"] ;
533 -> 535 ;
536 [label="flow_iat.min <= 16.57\ngini = 0.044\nsamples = 88\nvalue = [2, 86, 0, 0, 0, 0]\nclass = Benign"] ;
520 -> 536 ;
537 [label="gini = 0.0\nsamples = 86\nvalue = [0, 86, 0, 0, 0, 0]\nclass = Benign"] ;
536 -> 537 ;
538 [label="gini = 0.0\nsamples = 2\nvalue = [2, 0, 0, 0, 0, 0]\nclass = Background"] ;
536 -> 538 ;
539 [label="bwd_init_window_size <= 29080.0\ngini = 0.735\nsamples = 387\nvalue = [126, 39, 115, 2, 105, 0]\nclass = Background"] ;
497 -> 539 ;
540 [label="bwd_init_window_size <= 28460.0\ngini = 0.337\nsamples = 145\nvalue = [22, 6, 115, 2, 0, 0]\nclass = Bruteforce"] ;
539 -> 540 ;
541 [label="gini = 0.0\nsamples = 19\nvalue = [19, 0, 0, 0, 0, 0]\nclass = Background"] ;
540 -> 541 ;
542 [label="fwd_pkts_payload.max <= 472.0\ngini = 0.15\nsamples = 126\nvalue = [3, 6, 115, 2, 0, 0]\nclass = Bruteforce"] ;
540 -> 542 ;
543 [label="fwd_iat.avg <= 196702.454\ngini = 0.034\nsamples = 117\nvalue = [0, 2, 115, 0, 0, 0]\nclass = Bruteforce"] ;
542 -> 543 ;
544 [label="gini = 0.0\nsamples = 2\nvalue = [0, 2, 0, 0, 0, 0]\nclass = Benign"] ;
543 -> 544 ;
545 [label="gini = 0.0\nsamples = 115\nvalue = [0, 0, 115, 0, 0, 0]\nclass = Bruteforce"] ;
543 -> 545 ;
546 [label="active.max <= 2573518.872\ngini = 0.691\nsamples = 9\nvalue = [3, 4, 0, 2, 0, 0]\nclass = Benign"] ;
542 -> 546 ;
547 [label="bwd_header_size_tot <= 428.0\ngini = 0.64\nsamples = 5\nvalue = [3, 0, 0, 2, 0, 0]\nclass = Background"] ;
546 -> 547 ;
548 [label="gini = 0.0\nsamples = 2\nvalue = [0, 0, 0, 2, 0, 0]\nclass = Bruteforce-XML"] ;
547 -> 548 ;
549 [label="gini = 0.444\nsamples = 3\nvalue = [3, 0, 0, 0, 0, 0]\nclass = Background"] ;
547 -> 549 ;
550 [label="gini = 0.0\nsamples = 4\nvalue = [0, 4, 0, 0, 0, 0]\nclass = Benign"] ;
546 -> 550 ;
551 [label="fwd_pkts_payload.avg <= 104.834\ngini = 0.633\nsamples = 242\nvalue = [104, 33, 0, 0, 105, 0]\nclass = Probing"] ;
539 -> 551 ;
552 [label="flow_iat.min <= 6.557\ngini = 0.484\nsamples = 122\nvalue = [95, 20, 0, 0, 7, 0]\nclass = Background"] ;
551 -> 552 ;
553 [label="fwd_pkts_tot <= 15.5\ngini = 0.455\nsamples = 24\nvalue = [3, 17, 0, 0, 4, 0]\nclass = Benign"] ;
552 -> 553 ;
554 [label="flow_pkts_per_sec <= 69.319\ngini = 0.49\nsamples = 7\nvalue = [3, 0, 0, 0, 4, 0]\nclass = Probing"] ;
553 -> 554 ;
555 [label="gini = 0.0\nsamples = 3\nvalue = [3, 0, 0, 0, 0, 0]\nclass = Background"] ;
554 -> 555 ;
556 [label="gini = 0.0\nsamples = 4\nvalue = [0, 0, 0, 0, 4, 0]\nclass = Probing"] ;
554 -> 556 ;
557 [label="gini = 0.0\nsamples = 17\nvalue = [0, 17, 0, 0, 0, 0]\nclass = Benign"] ;
553 -> 557 ;
558 [label="fwd_data_pkts_tot <= 3.5\ngini = 0.348\nsamples = 98\nvalue = [92, 3, 0, 0, 3, 0]\nclass = Background"] ;
552 -> 558 ;
559 [label="gini = 0.0\nsamples = 3\nvalue = [0, 0, 0, 0, 3, 0]\nclass = Probing"] ;
558 -> 559 ;
560 [label="fwd_pkts_payload.std <= 74.947\ngini = 0.307\nsamples = 95\nvalue = [92, 3, 0, 0, 0, 0]\nclass = Background"] ;
558 -> 560 ;
561 [label="gini = 0.0\nsamples = 3\nvalue = [0, 3, 0, 0, 0, 0]\nclass = Benign"] ;
560 -> 561 ;
562 [label="gini = 0.273\nsamples = 92\nvalue = [92, 0, 0, 0, 0, 0]\nclass = Background"] ;
560 -> 562 ;
563 [label="flow_RST_flag_count <= 1.5\ngini = 0.292\nsamples = 120\nvalue = [9, 13, 0, 0, 98, 0]\nclass = Probing"] ;
551 -> 563 ;
564 [label="gini = 0.0\nsamples = 9\nvalue = [9, 0, 0, 0, 0, 0]\nclass = Background"] ;
563 -> 564 ;
565 [label="fwd_iat.min <= 33.021\ngini = 0.179\nsamples = 111\nvalue = [0, 13, 0, 0, 98, 0]\nclass = Probing"] ;
563 -> 565 ;
566 [label="fwd_iat.min <= 5.603\ngini = 0.103\nsamples = 92\nvalue = [0, 6, 0, 0, 86, 0]\nclass = Probing"] ;
565 -> 566 ;
567 [label="gini = 0.5\nsamples = 6\nvalue = [0, 6, 0, 0, 0, 0]\nclass = Benign"] ;
566 -> 567 ;
568 [label="gini = 0.045\nsamples = 86\nvalue = [0, 0, 0, 0, 86, 0]\nclass = Probing"] ;
566 -> 568 ;
569 [label="flow_iat.min <= 7.391\ngini = 0.432\nsamples = 19\nvalue = [0, 7, 0, 0, 12, 0]\nclass = Probing"] ;
565 -> 569 ;
570 [label="gini = 0.245\nsamples = 7\nvalue = [0, 7, 0, 0, 0, 0]\nclass = Benign"] ;
569 -> 570 ;
571 [label="gini = 0.0\nsamples = 12\nvalue = [0, 0, 0, 0, 12, 0]\nclass = Probing"] ;
569 -> 571 ;
572 [label="flow_pkts_payload.avg <= 48.75\ngini = 0.237\nsamples = 931\nvalue = [862, 69, 0, 0, 0, 0]\nclass = Background"] ;
496 -> 572 ;
573 [label="flow_pkts_per_sec <= 82.64\ngini = 0.5\nsamples = 68\nvalue = [32, 36, 0, 0, 0, 0]\nclass = Benign"] ;
572 -> 573 ;
574 [label="fwd_pkts_per_sec <= 38.181\ngini = 0.464\nsamples = 52\nvalue = [17, 35, 0, 0, 0, 0]\nclass = Benign"] ;
573 -> 574 ;
575 [label="bwd_iat.avg <= 57999.73\ngini = 0.432\nsamples = 19\nvalue = [14, 5, 0, 0, 0, 0]\nclass = Background"] ;
574 -> 575 ;
576 [label="active.tot <= 49554.467\ngini = 0.305\nsamples = 16\nvalue = [14, 2, 0, 0, 0, 0]\nclass = Background"] ;
575 -> 576 ;
577 [label="payload_bytes_per_second <= 2141.043\ngini = 0.5\nsamples = 4\nvalue = [2, 2, 0, 0, 0, 0]\nclass = Background"] ;
576 -> 577 ;
578 [label="gini = 0.0\nsamples = 2\nvalue = [0, 2, 0, 0, 0, 0]\nclass = Benign"] ;
577 -> 578 ;
579 [label="gini = 0.0\nsamples = 2\nvalue = [2, 0, 0, 0, 0, 0]\nclass = Background"] ;
577 -> 579 ;
580 [label="bwd_subflow_bytes <= 52.5\ngini = 0.153\nsamples = 12\nvalue = [12, 0, 0, 0, 0, 0]\nclass = Background"] ;
576 -> 580 ;
581 [label="gini = -0.0\nsamples = 5\nvalue = [5, 0, 0, 0, 0, 0]\nclass = Background"] ;
580 -> 581 ;
582 [label="gini = 0.245\nsamples = 7\nvalue = [7, 0, 0, 0, 0, 0]\nclass = Background"] ;
580 -> 582 ;
583 [label="gini = 0.0\nsamples = 3\nvalue = [0, 3, 0, 0, 0, 0]\nclass = Benign"] ;
575 -> 583 ;
584 [label="fwd_pkts_payload.min <= 39.5\ngini = 0.298\nsamples = 33\nvalue = [3, 30, 0, 0, 0, 0]\nclass = Benign"] ;
574 -> 584 ;
585 [label="gini = 0.0\nsamples = 1\nvalue = [1, 0, 0, 0, 0, 0]\nclass = Background"] ;
584 -> 585 ;
586 [label="active.tot <= 24626.851\ngini = 0.264\nsamples = 32\nvalue = [2, 30, 0, 0, 0, 0]\nclass = Benign"] ;
584 -> 586 ;
587 [label="flow_iat.max <= 24406.91\ngini = 0.48\nsamples = 5\nvalue = [2, 3, 0, 0, 0, 0]\nclass = Benign"] ;
586 -> 587 ;
588 [label="gini = 0.0\nsamples = 3\nvalue = [0, 3, 0, 0, 0, 0]\nclass = Benign"] ;
587 -> 588 ;
589 [label="gini = 0.0\nsamples = 2\nvalue = [2, 0, 0, 0, 0, 0]\nclass = Background"] ;
587 -> 589 ;
590 [label="flow_iat.tot <= 25614.977\ngini = 0.198\nsamples = 27\nvalue = [0, 27, 0, 0, 0, 0]\nclass = Benign"] ;
586 -> 590 ;
591 [label="gini = 0.0\nsamples = 16\nvalue = [0, 16, 0, 0, 0, 0]\nclass = Benign"] ;
590 -> 591 ;
592 [label="gini = 0.397\nsamples = 11\nvalue = [0, 11, 0, 0, 0, 0]\nclass = Benign"] ;
590 -> 592 ;
593 [label="fwd_pkts_payload.min <= 45.5\ngini = 0.117\nsamples = 16\nvalue = [15, 1, 0, 0, 0, 0]\nclass = Background"] ;
573 -> 593 ;
594 [label="gini = 0.0\nsamples = 14\nvalue = [14, 0, 0, 0, 0, 0]\nclass = Background"] ;
593 -> 594 ;
595 [label="active.tot <= 11055.946\ngini = 0.5\nsamples = 2\nvalue = [1, 1, 0, 0, 0, 0]\nclass = Background"] ;
593 -> 595 ;
596 [label="gini = 0.0\nsamples = 1\nvalue = [0, 1, 0, 0, 0, 0]\nclass = Benign"] ;
595 -> 596 ;
597 [label="gini = 0.0\nsamples = 1\nvalue = [1, 0, 0, 0, 0, 0]\nclass = Background"] ;
595 -> 597 ;
598 [label="flow_iat.max <= 25158.525\ngini = 0.194\nsamples = 863\nvalue = [830, 33, 0, 0, 0, 0]\nclass = Background"] ;
572 -> 598 ;
599 [label="flow_iat.min <= 31.59\ngini = 0.242\nsamples = 618\nvalue = [592, 26, 0, 0, 0, 0]\nclass = Background"] ;
598 -> 599 ;
600 [label="fwd_pkts_payload.min <= 41.5\ngini = 0.435\nsamples = 47\nvalue = [25, 22, 0, 0, 0, 0]\nclass = Background"] ;
599 -> 600 ;
601 [label="gini = 0.0\nsamples = 21\nvalue = [21, 0, 0, 0, 0, 0]\nclass = Background"] ;
600 -> 601 ;
602 [label="flow_iat.std <= 14198.573\ngini = 0.488\nsamples = 26\nvalue = [4, 22, 0, 0, 0, 0]\nclass = Benign"] ;
600 -> 602 ;
603 [label="flow_iat.max <= 23627.52\ngini = 0.488\nsamples = 19\nvalue = [4, 15, 0, 0, 0, 0]\nclass = Benign"] ;
602 -> 603 ;
604 [label="gini = 0.0\nsamples = 4\nvalue = [4, 0, 0, 0, 0, 0]\nclass = Background"] ;
603 -> 604 ;
605 [label="gini = 0.498\nsamples = 15\nvalue = [0, 15, 0, 0, 0, 0]\nclass = Benign"] ;
603 -> 605 ;
606 [label="gini = 0.0\nsamples = 7\nvalue = [0, 7, 0, 0, 0, 0]\nclass = Benign"] ;
602 -> 606 ;
607 [label="bwd_iat.std <= 17354.849\ngini = 0.22\nsamples = 571\nvalue = [567, 4, 0, 0, 0, 0]\nclass = Background"] ;
599 -> 607 ;
608 [label="flow_pkts_per_sec <= 24055.807\ngini = 0.216\nsamples = 569\nvalue = [567, 2, 0, 0, 0, 0]\nclass = Background"] ;
607 -> 608 ;
609 [label="flow_pkts_payload.max <= 90.0\ngini = 0.211\nsamples = 567\nvalue = [567, 0, 0, 0, 0, 0]\nclass = Background"] ;
608 -> 609 ;
610 [label="gini = 0.251\nsamples = 387\nvalue = [387, 0, 0, 0, 0, 0]\nclass = Background"] ;
609 -> 610 ;
611 [label="gini = 0.115\nsamples = 180\nvalue = [180, 0, 0, 0, 0, 0]\nclass = Background"] ;
609 -> 611 ;
612 [label="gini = 0.0\nsamples = 2\nvalue = [0, 2, 0, 0, 0, 0]\nclass = Benign"] ;
608 -> 612 ;
613 [label="gini = 0.0\nsamples = 2\nvalue = [0, 2, 0, 0, 0, 0]\nclass = Benign"] ;
607 -> 613 ;
614 [label="bwd_pkts_payload.avg <= 80.0\ngini = 0.056\nsamples = 245\nvalue = [238, 7, 0, 0, 0, 0]\nclass = Background"] ;
598 -> 614 ;
615 [label="bwd_subflow_bytes <= 205.5\ngini = 0.26\nsamples = 26\nvalue = [22, 4, 0, 0, 0, 0]\nclass = Background"] ;
614 -> 615 ;
616 [label="bwd_iat.avg <= 513097.525\ngini = 0.083\nsamples = 23\nvalue = [22, 1, 0, 0, 0, 0]\nclass = Background"] ;
615 -> 616 ;
617 [label="gini = -0.0\nsamples = 22\nvalue = [22, 0, 0, 0, 0, 0]\nclass = Background"] ;
616 -> 617 ;
618 [label="gini = 0.0\nsamples = 1\nvalue = [0, 1, 0, 0, 0, 0]\nclass = Benign"] ;
616 -> 618 ;
619 [label="gini = 0.0\nsamples = 3\nvalue = [0, 3, 0, 0, 0, 0]\nclass = Benign"] ;
615 -> 619 ;
620 [label="bwd_pkts_payload.max <= 104.5\ngini = 0.027\nsamples = 219\nvalue = [216, 3, 0, 0, 0, 0]\nclass = Background"] ;
614 -> 620 ;
621 [label="bwd_pkts_payload.min <= 103.0\ngini = 0.137\nsamples = 27\nvalue = [25, 2, 0, 0, 0, 0]\nclass = Background"] ;
620 -> 621 ;
622 [label="gini = 0.0\nsamples = 24\nvalue = [24, 0, 0, 0, 0, 0]\nclass = Background"] ;
621 -> 622 ;
623 [label="flow_iat.std <= 24653.438\ngini = 0.444\nsamples = 3\nvalue = [1, 2, 0, 0, 0, 0]\nclass = Benign"] ;
621 -> 623 ;
624 [label="gini = 0.0\nsamples = 2\nvalue = [0, 2, 0, 0, 0, 0]\nclass = Benign"] ;
623 -> 624 ;
625 [label="gini = 0.0\nsamples = 1\nvalue = [1, 0, 0, 0, 0, 0]\nclass = Background"] ;
623 -> 625 ;
626 [label="fwd_subflow_bytes <= 1023.5\ngini = 0.01\nsamples = 192\nvalue = [191, 1, 0, 0, 0, 0]\nclass = Background"] ;
620 -> 626 ;
627 [label="gini = -0.0\nsamples = 183\nvalue = [183, 0, 0, 0, 0, 0]\nclass = Background"] ;
626 -> 627 ;
628 [label="flow_iat.std <= 150523.673\ngini = 0.198\nsamples = 9\nvalue = [8, 1, 0, 0, 0, 0]\nclass = Background"] ;
626 -> 628 ;
629 [label="gini = 0.0\nsamples = 8\nvalue = [8, 0, 0, 0, 0, 0]\nclass = Background"] ;
628 -> 629 ;
630 [label="gini = 0.0\nsamples = 1\nvalue = [0, 1, 0, 0, 0, 0]\nclass = Benign"] ;
628 -> 630 ;
631 [label="fwd_pkts_payload.max <= 630.0\ngini = 0.07\nsamples = 1683\nvalue = [19, 1622, 0, 42, 0, 0]\nclass = Benign"] ;
283 -> 631 ;
632 [label="fwd_header_size_max <= 22.0\ngini = 0.025\nsamples = 1643\nvalue = [19, 1622, 0, 2, 0, 0]\nclass = Benign"] ;
631 -> 632 ;
633 [label="fwd_pkts_per_sec <= 12705.127\ngini = 0.436\nsamples = 28\nvalue = [19, 9, 0, 0, 0, 0]\nclass = Background"] ;
632 -> 633 ;
634 [label="gini = -0.0\nsamples = 11\nvalue = [11, 0, 0, 0, 0, 0]\nclass = Background"] ;
633 -> 634 ;
635 [label="active.tot <= 62.585\ngini = 0.498\nsamples = 17\nvalue = [8, 9, 0, 0, 0, 0]\nclass = Benign"] ;
633 -> 635 ;
636 [label="flow_CWR_flag_count <= 0.5\ngini = 0.245\nsamples = 7\nvalue = [6, 1, 0, 0, 0, 0]\nclass = Background"] ;
635 -> 636 ;
637 [label="fwd_pkts_per_sec <= 16384.0\ngini = 0.444\nsamples = 3\nvalue = [2, 1, 0, 0, 0, 0]\nclass = Background"] ;
636 -> 637 ;
638 [label="gini = 0.0\nsamples = 2\nvalue = [2, 0, 0, 0, 0, 0]\nclass = Background"] ;
637 -> 638 ;
639 [label="gini = 0.0\nsamples = 1\nvalue = [0, 1, 0, 0, 0, 0]\nclass = Benign"] ;
637 -> 639 ;
640 [label="gini = 0.0\nsamples = 4\nvalue = [4, 0, 0, 0, 0, 0]\nclass = Background"] ;
636 -> 640 ;
641 [label="bwd_init_window_size <= 14600.0\ngini = 0.32\nsamples = 10\nvalue = [2, 8, 0, 0, 0, 0]\nclass = Benign"] ;
635 -> 641 ;
642 [label="gini = 0.0\nsamples = 8\nvalue = [0, 8, 0, 0, 0, 0]\nclass = Benign"] ;
641 -> 642 ;
643 [label="gini = 0.0\nsamples = 2\nvalue = [2, 0, 0, 0, 0, 0]\nclass = Background"] ;
641 -> 643 ;
644 [label="flow_iat.min <= 94.533\ngini = 0.002\nsamples = 1615\nvalue = [0, 1613, 0, 2, 0, 0]\nclass = Benign"] ;
632 -> 644 ;
645 [label="gini = -0.0\nsamples = 1605\nvalue = [0, 1605, 0, 0, 0, 0]\nclass = Benign"] ;
644 -> 645 ;
646 [label="flow_pkts_per_sec <= 19906.532\ngini = 0.32\nsamples = 10\nvalue = [0, 8, 0, 2, 0, 0]\nclass = Benign"] ;
644 -> 646 ;
647 [label="gini = 0.0\nsamples = 6\nvalue = [0, 6, 0, 0, 0, 0]\nclass = Benign"] ;
646 -> 647 ;
648 [label="flow_duration <= 0.0\ngini = 0.5\nsamples = 4\nvalue = [0, 2, 0, 2, 0, 0]\nclass = Benign"] ;
646 -> 648 ;
649 [label="gini = 0.0\nsamples = 2\nvalue = [0, 2, 0, 0, 0, 0]\nclass = Benign"] ;
648 -> 649 ;
650 [label="gini = 0.0\nsamples = 2\nvalue = [0, 0, 0, 2, 0, 0]\nclass = Bruteforce-XML"] ;
648 -> 650 ;
651 [label="gini = 0.0\nsamples = 40\nvalue = [0, 0, 0, 40, 0, 0]\nclass = Bruteforce-XML"] ;
631 -> 651 ;
652 [label="flow_RST_flag_count <= 0.5\ngini = 0.235\nsamples = 7285\nvalue = [187, 203, 2, 0, 6893, 0]\nclass = Probing"] ;
2 -> 652 ;
653 [label="flow_pkts_payload.avg <= 181.514\ngini = 0.479\nsamples = 271\nvalue = [168, 100, 0, 0, 3, 0]\nclass = Background"] ;
652 -> 653 ;
654 [label="fwd_last_window_size <= 72.0\ngini = 0.134\nsamples = 166\nvalue = [154, 12, 0, 0, 0, 0]\nclass = Background"] ;
653 -> 654 ;
655 [label="fwd_pkts_payload.max <= 356.5\ngini = 0.32\nsamples = 10\nvalue = [2, 8, 0, 0, 0, 0]\nclass = Benign"] ;
654 -> 655 ;
656 [label="gini = 0.0\nsamples = 8\nvalue = [0, 8, 0, 0, 0, 0]\nclass = Benign"] ;
655 -> 656 ;
657 [label="gini = 0.0\nsamples = 2\nvalue = [2, 0, 0, 0, 0, 0]\nclass = Background"] ;
655 -> 657 ;
658 [label="fwd_header_size_min <= 36.0\ngini = 0.05\nsamples = 156\nvalue = [152, 4, 0, 0, 0, 0]\nclass = Background"] ;
654 -> 658 ;
659 [label="flow_pkts_payload.std <= 504.048\ngini = 0.013\nsamples = 150\nvalue = [149, 1, 0, 0, 0, 0]\nclass = Background"] ;
658 -> 659 ;
660 [label="gini = -0.0\nsamples = 145\nvalue = [145, 0, 0, 0, 0, 0]\nclass = Background"] ;
659 -> 660 ;
661 [label="active.min <= 1497214.437\ngini = 0.32\nsamples = 5\nvalue = [4, 1, 0, 0, 0, 0]\nclass = Background"] ;
659 -> 661 ;
662 [label="gini = 0.0\nsamples = 4\nvalue = [4, 0, 0, 0, 0, 0]\nclass = Background"] ;
661 -> 662 ;
663 [label="gini = 0.0\nsamples = 1\nvalue = [0, 1, 0, 0, 0, 0]\nclass = Benign"] ;
661 -> 663 ;
664 [label="fwd_header_size_min <= 42.0\ngini = 0.5\nsamples = 6\nvalue = [3, 3, 0, 0, 0, 0]\nclass = Background"] ;
658 -> 664 ;
665 [label="gini = 0.0\nsamples = 3\nvalue = [0, 3, 0, 0, 0, 0]\nclass = Benign"] ;
664 -> 665 ;
666 [label="gini = 0.0\nsamples = 3\nvalue = [3, 0, 0, 0, 0, 0]\nclass = Background"] ;
664 -> 666 ;
667 [label="active.min <= 26082.516\ngini = 0.279\nsamples = 105\nvalue = [14, 88, 0, 0, 3, 0]\nclass = Benign"] ;
653 -> 667 ;
668 [label="bwd_pkts_payload.std <= 539.18\ngini = 0.231\nsamples = 15\nvalue = [13, 2, 0, 0, 0, 0]\nclass = Background"] ;
667 -> 668 ;
669 [label="gini = 0.0\nsamples = 2\nvalue = [0, 2, 0, 0, 0, 0]\nclass = Benign"] ;
668 -> 669 ;
670 [label="gini = 0.0\nsamples = 13\nvalue = [13, 0, 0, 0, 0, 0]\nclass = Background"] ;
668 -> 670 ;
671 [label="fwd_pkts_payload.tot <= 3456.0\ngini = 0.086\nsamples = 90\nvalue = [1, 86, 0, 0, 3, 0]\nclass = Benign"] ;
667 -> 671 ;
672 [label="gini = 0.0\nsamples = 86\nvalue = [0, 86, 0, 0, 0, 0]\nclass = Benign"] ;
671 -> 672 ;
673 [label="flow_iat.tot <= 8339728.832\ngini = 0.375\nsamples = 4\nvalue = [1, 0, 0, 0, 3, 0]\nclass = Probing"] ;
671 -> 673 ;
674 [label="gini = 0.0\nsamples = 3\nvalue = [0, 0, 0, 0, 3, 0]\nclass = Probing"] ;
673 -> 674 ;
675 [label="gini = 0.0\nsamples = 1\nvalue = [1, 0, 0, 0, 0, 0]\nclass = Background"] ;
673 -> 675 ;
676 [label="bwd_header_size_min <= 26.0\ngini = 0.18\nsamples = 7014\nvalue = [19, 103, 2, 0, 6890, 0]\nclass = Probing"] ;
652 -> 676 ;
677 [label="flow_iat.min <= 4.53\ngini = 0.198\nsamples = 18\nvalue = [16, 2, 0, 0, 0, 0]\nclass = Background"] ;
676 -> 677 ;
678 [label="gini = 0.0\nsamples = 2\nvalue = [0, 2, 0, 0, 0, 0]\nclass = Benign"] ;
677 -> 678 ;
679 [label="gini = 0.0\nsamples = 16\nvalue = [16, 0, 0, 0, 0, 0]\nclass = Background"] ;
677 -> 679 ;
680 [label="active.max <= 309962.034\ngini = 0.175\nsamples = 6996\nvalue = [3, 101, 2, 0, 6890, 0]\nclass = Probing"] ;
676 -> 680 ;
681 [label="fwd_iat.tot <= 113617.063\ngini = 0.198\nsamples = 5401\nvalue = [3, 65, 0, 0, 5333, 0]\nclass = Probing"] ;
680 -> 681 ;
682 [label="gini = 0.0\nsamples = 3\nvalue = [3, 0, 0, 0, 0, 0]\nclass = Background"] ;
681 -> 682 ;
683 [label="fwd_iat.std <= 52017.817\ngini = 0.197\nsamples = 5398\nvalue = [0, 65, 0, 0, 5333, 0]\nclass = Probing"] ;
681 -> 683 ;
684 [label="flow_iat.min <= 9.894\ngini = 0.17\nsamples = 3201\nvalue = [0, 31, 0, 0, 3170, 0]\nclass = Probing"] ;
683 -> 684 ;
685 [label="bwd_iat.max <= 28526.902\ngini = 0.164\nsamples = 3128\nvalue = [0, 15, 0, 0, 3113, 0]\nclass = Probing"] ;
684 -> 685 ;
686 [label="flow_iat.min <= 3.934\ngini = 0.437\nsamples = 31\nvalue = [0, 11, 0, 0, 20, 0]\nclass = Probing"] ;
685 -> 686 ;
687 [label="flow_pkts_payload.tot <= 4852.5\ngini = 0.444\nsamples = 15\nvalue = [0, 11, 0, 0, 4, 0]\nclass = Benign"] ;
686 -> 687 ;
688 [label="gini = 0.0\nsamples = 4\nvalue = [0, 0, 0, 0, 4, 0]\nclass = Probing"] ;
687 -> 688 ;
689 [label="flow_pkts_payload.tot <= 5002.0\ngini = 0.165\nsamples = 11\nvalue = [0, 11, 0, 0, 0, 0]\nclass = Benign"] ;
687 -> 689 ;
690 [label="gini = 0.0\nsamples = 6\nvalue = [0, 6, 0, 0, 0, 0]\nclass = Benign"] ;
689 -> 690 ;
691 [label="gini = 0.32\nsamples = 5\nvalue = [0, 5, 0, 0, 0, 0]\nclass = Benign"] ;
689 -> 691 ;
692 [label="gini = 0.0\nsamples = 16\nvalue = [0, 0, 0, 0, 16, 0]\nclass = Probing"] ;
686 -> 692 ;
693 [label="fwd_pkts_payload.std <= 190.393\ngini = 0.16\nsamples = 3097\nvalue = [0, 4, 0, 0, 3093, 0]\nclass = Probing"] ;
685 -> 693 ;
694 [label="bwd_iat.std <= 38362.665\ngini = 0.159\nsamples = 3095\nvalue = [0, 2, 0, 0, 3093, 0]\nclass = Probing"] ;
693 -> 694 ;
695 [label="flow_pkts_per_sec <= 90.539\ngini = 0.158\nsamples = 3092\nvalue = [0, 0, 0, 0, 3092, 0]\nclass = Probing"] ;
694 -> 695 ;
696 [label="bwd_iat.min <= 3.934\ngini = 0.13\nsamples = 1574\nvalue = [0, 0, 0, 0, 1574, 0]\nclass = Probing"] ;
695 -> 696 ;
697 [label="gini = 0.095\nsamples = 820\nvalue = [0, 0, 0, 0, 820, 0]\nclass = Probing"] ;
696 -> 697 ;
698 [label="gini = 0.166\nsamples = 754\nvalue = [0, 0, 0, 0, 754, 0]\nclass = Probing"] ;
696 -> 698 ;
699 [label="fwd_iat.min <= 34.451\ngini = 0.187\nsamples = 1518\nvalue = [0, 0, 0, 0, 1518, 0]\nclass = Probing"] ;
695 -> 699 ;
700 [label="gini = 0.158\nsamples = 1141\nvalue = [0, 0, 0, 0, 1141, 0]\nclass = Probing"] ;
699 -> 700 ;
701 [label="gini = 0.264\nsamples = 377\nvalue = [0, 0, 0, 0, 377, 0]\nclass = Probing"] ;
699 -> 701 ;
702 [label="active.max <= 254017.83\ngini = 0.444\nsamples = 3\nvalue = [0, 2, 0, 0, 1, 0]\nclass = Benign"] ;
694 -> 702 ;
703 [label="gini = 0.0\nsamples = 2\nvalue = [0, 2, 0, 0, 0, 0]\nclass = Benign"] ;
702 -> 703 ;
704 [label="gini = 0.0\nsamples = 1\nvalue = [0, 0, 0, 0, 1, 0]\nclass = Probing"] ;
702 -> 704 ;
705 [label="gini = 0.0\nsamples = 2\nvalue = [0, 2, 0, 0, 0, 0]\nclass = Benign"] ;
693 -> 705 ;
706 [label="flow_iat.avg <= 14397.129\ngini = 0.385\nsamples = 73\nvalue = [0, 16, 0, 0, 57, 0]\nclass = Probing"] ;
684 -> 706 ;
707 [label="flow_pkts_payload.std <= 759.178\ngini = 0.259\nsamples = 59\nvalue = [0, 6, 0, 0, 53, 0]\nclass = Probing"] ;
706 -> 707 ;
708 [label="fwd_iat.min <= 27.418\ngini = 0.14\nsamples = 53\nvalue = [0, 1, 0, 0, 52, 0]\nclass = Probing"] ;
707 -> 708 ;
709 [label="gini = 0.0\nsamples = 1\nvalue = [0, 1, 0, 0, 0, 0]\nclass = Benign"] ;
708 -> 709 ;
710 [label="flow_iat.min <= 11.086\ngini = 0.109\nsamples = 52\nvalue = [0, 0, 0, 0, 52, 0]\nclass = Probing"] ;
708 -> 710 ;
711 [label="gini = 0.0\nsamples = 30\nvalue = [0, 0, 0, 0, 30, 0]\nclass = Probing"] ;
710 -> 711 ;
712 [label="bwd_pkts_payload.std <= 605.256\ngini = 0.236\nsamples = 22\nvalue = [0, 0, 0, 0, 22, 0]\nclass = Probing"] ;
710 -> 712 ;
713 [label="gini = 0.469\nsamples = 8\nvalue = [0, 0, 0, 0, 8, 0]\nclass = Probing"] ;
712 -> 713 ;
714 [label="gini = 0.0\nsamples = 14\nvalue = [0, 0, 0, 0, 14, 0]\nclass = Probing"] ;
712 -> 714 ;
715 [label="payload_bytes_per_second <= 39028.83\ngini = 0.278\nsamples = 6\nvalue = [0, 5, 0, 0, 1, 0]\nclass = Benign"] ;
707 -> 715 ;
716 [label="gini = 0.0\nsamples = 1\nvalue = [0, 0, 0, 0, 1, 0]\nclass = Probing"] ;
715 -> 716 ;
717 [label="gini = 0.0\nsamples = 5\nvalue = [0, 5, 0, 0, 0, 0]\nclass = Benign"] ;
715 -> 717 ;
718 [label="flow_iat.max <= 101066.589\ngini = 0.408\nsamples = 14\nvalue = [0, 10, 0, 0, 4, 0]\nclass = Benign"] ;
706 -> 718 ;
719 [label="gini = -0.0\nsamples = 10\nvalue = [0, 10, 0, 0, 0, 0]\nclass = Benign"] ;
718 -> 719 ;
720 [label="gini = 0.0\nsamples = 4\nvalue = [0, 0, 0, 0, 4, 0]\nclass = Probing"] ;
718 -> 720 ;
721 [label="fwd_iat.max <= 150164.485\ngini = 0.234\nsamples = 2197\nvalue = [0, 34, 0, 0, 2163, 0]\nclass = Probing"] ;
683 -> 721 ;
722 [label="payload_bytes_per_second <= 18509.359\ngini = 0.375\nsamples = 8\nvalue = [0, 7, 0, 0, 1, 0]\nclass = Benign"] ;
721 -> 722 ;
723 [label="gini = 0.0\nsamples = 1\nvalue = [0, 0, 0, 0, 1, 0]\nclass = Probing"] ;
722 -> 723 ;
724 [label="flow_pkts_per_sec <= 70.232\ngini = 0.245\nsamples = 7\nvalue = [0, 7, 0, 0, 0, 0]\nclass = Benign"] ;
722 -> 724 ;
725 [label="gini = 0.0\nsamples = 2\nvalue = [0, 2, 0, 0, 0, 0]\nclass = Benign"] ;
724 -> 725 ;
726 [label="gini = 0.32\nsamples = 5\nvalue = [0, 5, 0, 0, 0, 0]\nclass = Benign"] ;
724 -> 726 ;
727 [label="down_up_ratio <= 1.202\ngini = 0.231\nsamples = 2189\nvalue = [0, 27, 0, 0, 2162, 0]\nclass = Probing"] ;
721 -> 727 ;
728 [label="fwd_iat.min <= 125.408\ngini = 0.048\nsamples = 164\nvalue = [0, 4, 0, 0, 160, 0]\nclass = Probing"] ;
727 -> 728 ;
729 [label="fwd_pkts_payload.avg <= 96.688\ngini = 0.025\nsamples = 161\nvalue = [0, 1, 0, 0, 160, 0]\nclass = Probing"] ;
728 -> 729 ;
730 [label="fwd_pkts_payload.avg <= 85.056\ngini = 0.013\nsamples = 153\nvalue = [0, 0, 0, 0, 153, 0]\nclass = Probing"] ;
729 -> 730 ;
731 [label="fwd_iat.min <= 23.484\ngini = 0.142\nsamples = 13\nvalue = [0, 0, 0, 0, 13, 0]\nclass = Probing"] ;
730 -> 731 ;
732 [label="gini = 0.0\nsamples = 9\nvalue = [0, 0, 0, 0, 9, 0]\nclass = Probing"] ;
731 -> 732 ;
733 [label="gini = 0.375\nsamples = 4\nvalue = [0, 0, 0, 0, 4, 0]\nclass = Probing"] ;
731 -> 733 ;
734 [label="gini = 0.0\nsamples = 140\nvalue = [0, 0, 0, 0, 140, 0]\nclass = Probing"] ;
730 -> 734 ;
735 [label="bwd_pkts_per_sec <= 30.35\ngini = 0.219\nsamples = 8\nvalue = [0, 1, 0, 0, 7, 0]\nclass = Probing"] ;
729 -> 735 ;
736 [label="fwd_iat.tot <= 297603.13\ngini = 0.444\nsamples = 3\nvalue = [0, 1, 0, 0, 2, 0]\nclass = Probing"] ;
735 -> 736 ;
737 [label="gini = 0.0\nsamples = 1\nvalue = [0, 1, 0, 0, 0, 0]\nclass = Benign"] ;
736 -> 737 ;
738 [label="gini = 0.0\nsamples = 2\nvalue = [0, 0, 0, 0, 2, 0]\nclass = Probing"] ;
736 -> 738 ;
739 [label="gini = 0.0\nsamples = 5\nvalue = [0, 0, 0, 0, 5, 0]\nclass = Probing"] ;
735 -> 739 ;
740 [label="gini = 0.444\nsamples = 3\nvalue = [0, 3, 0, 0, 0, 0]\nclass = Benign"] ;
728 -> 740 ;
741 [label="bwd_bulk_rate <= 53974256.723\ngini = 0.244\nsamples = 2025\nvalue = [0, 23, 0, 0, 2002, 0]\nclass = Probing"] ;
727 -> 741 ;
742 [label="flow_pkts_payload.std <= 808.22\ngini = 0.282\nsamples = 1073\nvalue = [0, 19, 0, 0, 1054, 0]\nclass = Probing"] ;
741 -> 742 ;
743 [label="fwd_iat.std <= 63622.325\ngini = 0.273\nsamples = 1053\nvalue = [0, 9, 0, 0, 1044, 0]\nclass = Probing"] ;
742 -> 743 ;
744 [label="bwd_iat.std <= 38111.953\ngini = 0.261\nsamples = 1005\nvalue = [0, 0, 0, 0, 1005, 0]\nclass = Probing"] ;
743 -> 744 ;
745 [label="gini = 0.375\nsamples = 196\nvalue = [0, 0, 0, 0, 196, 0]\nclass = Probing"] ;
744 -> 745 ;
746 [label="gini = 0.228\nsamples = 809\nvalue = [0, 0, 0, 0, 809, 0]\nclass = Probing"] ;
744 -> 746 ;
747 [label="fwd_subflow_bytes <= 834.5\ngini = 0.457\nsamples = 48\nvalue = [0, 9, 0, 0, 39, 0]\nclass = Probing"] ;
743 -> 747 ;
748 [label="gini = 0.346\nsamples = 9\nvalue = [0, 9, 0, 0, 0, 0]\nclass = Benign"] ;
747 -> 748 ;
749 [label="gini = 0.381\nsamples = 39\nvalue = [0, 0, 0, 0, 39, 0]\nclass = Probing"] ;
747 -> 749 ;
750 [label="bwd_bulk_rate <= 38605208.093\ngini = 0.5\nsamples = 20\nvalue = [0, 10, 0, 0, 10, 0]\nclass = Benign"] ;
742 -> 750 ;
751 [label="bwd_iat.max <= 153511.047\ngini = 0.278\nsamples = 12\nvalue = [0, 2, 0, 0, 10, 0]\nclass = Probing"] ;
750 -> 751 ;
752 [label="gini = -0.0\nsamples = 10\nvalue = [0, 0, 0, 0, 10, 0]\nclass = Probing"] ;
751 -> 752 ;
753 [label="gini = 0.0\nsamples = 2\nvalue = [0, 2, 0, 0, 0, 0]\nclass = Benign"] ;
751 -> 753 ;
754 [label="gini = 0.0\nsamples = 8\nvalue = [0, 8, 0, 0, 0, 0]\nclass = Benign"] ;
750 -> 754 ;
755 [label="fwd_pkts_payload.avg <= 100.111\ngini = 0.198\nsamples = 952\nvalue = [0, 4, 0, 0, 948, 0]\nclass = Probing"] ;
741 -> 755 ;
756 [label="bwd_pkts_per_sec <= 38.838\ngini = 0.195\nsamples = 950\nvalue = [0, 2, 0, 0, 948, 0]\nclass = Probing"] ;
755 -> 756 ;
757 [label="gini = 0.0\nsamples = 2\nvalue = [0, 2, 0, 0, 0, 0]\nclass = Benign"] ;
756 -> 757 ;
758 [label="fwd_iat.min <= 36.478\ngini = 0.192\nsamples = 948\nvalue = [0, 0, 0, 0, 948, 0]\nclass = Probing"] ;
756 -> 758 ;
759 [label="gini = 0.214\nsamples = 745\nvalue = [0, 0, 0, 0, 745, 0]\nclass = Probing"] ;
758 -> 759 ;
760 [label="gini = 0.103\nsamples = 203\nvalue = [0, 0, 0, 0, 203, 0]\nclass = Probing"] ;
758 -> 760 ;
761 [label="gini = 0.0\nsamples = 2\nvalue = [0, 2, 0, 0, 0, 0]\nclass = Benign"] ;
755 -> 761 ;
762 [label="flow_pkts_payload.avg <= 220.237\ngini = 0.092\nsamples = 1595\nvalue = [0, 36, 2, 0, 1557, 0]\nclass = Probing"] ;
680 -> 762 ;
763 [label="fwd_iat.min <= 18.477\ngini = 0.499\nsamples = 21\nvalue = [0, 10, 0, 0, 11, 0]\nclass = Probing"] ;
762 -> 763 ;
764 [label="bwd_iat.min <= 15.497\ngini = 0.278\nsamples = 12\nvalue = [0, 10, 0, 0, 2, 0]\nclass = Benign"] ;
763 -> 764 ;
765 [label="gini = -0.0\nsamples = 10\nvalue = [0, 10, 0, 0, 0, 0]\nclass = Benign"] ;
764 -> 765 ;
766 [label="gini = 0.0\nsamples = 2\nvalue = [0, 0, 0, 0, 2, 0]\nclass = Probing"] ;
764 -> 766 ;
767 [label="gini = 0.0\nsamples = 9\nvalue = [0, 0, 0, 0, 9, 0]\nclass = Probing"] ;
763 -> 767 ;
768 [label="fwd_pkts_payload.avg <= 65.375\ngini = 0.082\nsamples = 1574\nvalue = [0, 26, 2, 0, 1546, 0]\nclass = Probing"] ;
762 -> 768 ;
769 [label="gini = 0.0\nsamples = 2\nvalue = [0, 0, 2, 0, 0, 0]\nclass = Bruteforce"] ;
768 -> 769 ;
770 [label="bwd_iat.min <= 2.98\ngini = 0.079\nsamples = 1572\nvalue = [0, 26, 0, 0, 1546, 0]\nclass = Probing"] ;
768 -> 770 ;
771 [label="down_up_ratio <= 1.056\ngini = 0.124\nsamples = 542\nvalue = [0, 11, 0, 0, 531, 0]\nclass = Probing"] ;
770 -> 771 ;
772 [label="bwd_iat.max <= 238920.45\ngini = 0.494\nsamples = 9\nvalue = [0, 5, 0, 0, 4, 0]\nclass = Benign"] ;
771 -> 772 ;
773 [label="gini = -0.0\nsamples = 5\nvalue = [0, 5, 0, 0, 0, 0]\nclass = Benign"] ;
772 -> 773 ;
774 [label="gini = 0.0\nsamples = 4\nvalue = [0, 0, 0, 0, 4, 0]\nclass = Probing"] ;
772 -> 774 ;
775 [label="flow_iat.avg <= 27179.076\ngini = 0.11\nsamples = 533\nvalue = [0, 6, 0, 0, 527, 0]\nclass = Probing"] ;
771 -> 775 ;
776 [label="bwd_iat.max <= 85351.11\ngini = 0.103\nsamples = 531\nvalue = [0, 4, 0, 0, 527, 0]\nclass = Probing"] ;
775 -> 776 ;
777 [label="gini = 0.0\nsamples = 1\nvalue = [0, 1, 0, 0, 0, 0]\nclass = Benign"] ;
776 -> 777 ;
778 [label="fwd_pkts_payload.std <= 179.166\ngini = 0.1\nsamples = 530\nvalue = [0, 3, 0, 0, 527, 0]\nclass = Probing"] ;
776 -> 778 ;
779 [label="fwd_iat.min <= 11.086\ngini = 0.091\nsamples = 521\nvalue = [0, 0, 0, 0, 521, 0]\nclass = Probing"] ;
778 -> 779 ;
780 [label="gini = 0.272\nsamples = 37\nvalue = [0, 0, 0, 0, 37, 0]\nclass = Probing"] ;
779 -> 780 ;
781 [label="gini = 0.075\nsamples = 484\nvalue = [0, 0, 0, 0, 484, 0]\nclass = Probing"] ;
779 -> 781 ;
782 [label="fwd_iat.avg <= 45370.638\ngini = 0.444\nsamples = 9\nvalue = [0, 3, 0, 0, 6, 0]\nclass = Probing"] ;
778 -> 782 ;
783 [label="gini = 0.0\nsamples = 6\nvalue = [0, 0, 0, 0, 6, 0]\nclass = Probing"] ;
782 -> 783 ;
784 [label="gini = 0.0\nsamples = 3\nvalue = [0, 3, 0, 0, 0, 0]\nclass = Benign"] ;
782 -> 784 ;
785 [label="gini = 0.0\nsamples = 2\nvalue = [0, 2, 0, 0, 0, 0]\nclass = Benign"] ;
775 -> 785 ;
786 [label="flow_pkts_per_sec <= 85.655\ngini = 0.055\nsamples = 1030\nvalue = [0, 15, 0, 0, 1015, 0]\nclass = Probing"] ;
770 -> 786 ;
787 [label="bwd_bulk_packets <= 8.5\ngini = 0.053\nsamples = 1029\nvalue = [0, 14, 0, 0, 1015, 0]\nclass = Probing"] ;
786 -> 787 ;
788 [label="fwd_pkts_payload.tot <= 833.5\ngini = 0.05\nsamples = 1020\nvalue = [0, 12, 0, 0, 1008, 0]\nclass = Probing"] ;
787 -> 788 ;
789 [label="flow_iat.tot <= 324471.593\ngini = 0.162\nsamples = 79\nvalue = [0, 12, 0, 0, 67, 0]\nclass = Probing"] ;
788 -> 789 ;
790 [label="gini = 0.0\nsamples = 31\nvalue = [0, 0, 0, 0, 31, 0]\nclass = Probing"] ;
789 -> 790 ;
791 [label="active.min <= 329566.36\ngini = 0.249\nsamples = 48\nvalue = [0, 12, 0, 0, 36, 0]\nclass = Probing"] ;
789 -> 791 ;
792 [label="gini = 0.5\nsamples = 12\nvalue = [0, 12, 0, 0, 0, 0]\nclass = Benign"] ;
791 -> 792 ;
793 [label="gini = 0.054\nsamples = 36\nvalue = [0, 0, 0, 0, 36, 0]\nclass = Probing"] ;
791 -> 793 ;
794 [label="bwd_bulk_rate <= 52992119.165\ngini = 0.04\nsamples = 941\nvalue = [0, 0, 0, 0, 941, 0]\nclass = Probing"] ;
788 -> 794 ;
795 [label="bwd_iat.max <= 84502.935\ngini = 0.026\nsamples = 769\nvalue = [0, 0, 0, 0, 769, 0]\nclass = Probing"] ;
794 -> 795 ;
796 [label="gini = 0.165\nsamples = 11\nvalue = [0, 0, 0, 0, 11, 0]\nclass = Probing"] ;
795 -> 796 ;
797 [label="gini = 0.023\nsamples = 758\nvalue = [0, 0, 0, 0, 758, 0]\nclass = Probing"] ;
795 -> 797 ;
798 [label="fwd_iat.max <= 261073.947\ngini = 0.099\nsamples = 172\nvalue = [0, 0, 0, 0, 172, 0]\nclass = Probing"] ;
794 -> 798 ;
799 [label="gini = 0.071\nsamples = 163\nvalue = [0, 0, 0, 0, 163, 0]\nclass = Probing"] ;
798 -> 799 ;
800 [label="gini = 0.444\nsamples = 9\nvalue = [0, 0, 0, 0, 9, 0]\nclass = Probing"] ;
798 -> 800 ;
801 [label="payload_bytes_per_second <= 12608.34\ngini = 0.346\nsamples = 9\nvalue = [0, 2, 0, 0, 7, 0]\nclass = Probing"] ;
787 -> 801 ;
802 [label="gini = 0.0\nsamples = 7\nvalue = [0, 0, 0, 0, 7, 0]\nclass = Probing"] ;
801 -> 802 ;
803 [label="gini = 0.0\nsamples = 2\nvalue = [0, 2, 0, 0, 0, 0]\nclass = Benign"] ;
801 -> 803 ;
804 [label="gini = 0.0\nsamples = 1\nvalue = [0, 1, 0, 0, 0, 0]\nclass = Benign"] ;
786 -> 804 ;
805 [label="fwd_last_window_size <= 39.5\ngini = 0.225\nsamples = 6941\nvalue = [514, 224, 6159, 0, 44, 0]\nclass = Bruteforce"] ;
1 -> 805 ;
806 [label="bwd_init_window_size <= 65347.5\ngini = 0.071\nsamples = 6250\nvalue = [136, 14, 6099, 0, 1, 0]\nclass = Bruteforce"] ;
805 -> 806 ;
807 [label="bwd_header_size_tot <= 296.0\ngini = 0.047\nsamples = 6171\nvalue = [64, 7, 6099, 0, 1, 0]\nclass = Bruteforce"] ;
806 -> 807 ;
808 [label="flow_RST_flag_count <= 3.5\ngini = 0.159\nsamples = 23\nvalue = [21, 0, 2, 0, 0, 0]\nclass = Background"] ;
807 -> 808 ;
809 [label="gini = -0.0\nsamples = 20\nvalue = [20, 0, 0, 0, 0, 0]\nclass = Background"] ;
808 -> 809 ;
810 [label="flow_pkts_per_sec <= 3.429\ngini = 0.444\nsamples = 3\nvalue = [1, 0, 2, 0, 0, 0]\nclass = Bruteforce"] ;
808 -> 810 ;
811 [label="gini = 0.0\nsamples = 1\nvalue = [1, 0, 0, 0, 0, 0]\nclass = Background"] ;
810 -> 811 ;
812 [label="gini = 0.0\nsamples = 2\nvalue = [0, 0, 2, 0, 0, 0]\nclass = Bruteforce"] ;
810 -> 812 ;
813 [label="bwd_iat.tot <= 15515192.032\ngini = 0.041\nsamples = 6148\nvalue = [43, 7, 6097, 0, 1, 0]\nclass = Bruteforce"] ;
807 -> 813 ;
814 [label="fwd_bulk_bytes <= 263.5\ngini = 0.036\nsamples = 6132\nvalue = [27, 7, 6097, 0, 1, 0]\nclass = Bruteforce"] ;
813 -> 814 ;
815 [label="bwd_iat.tot <= 1146603.584\ngini = 0.032\nsamples = 6119\nvalue = [14, 7, 6097, 0, 1, 0]\nclass = Bruteforce"] ;
814 -> 815 ;
816 [label="bwd_bulk_rate <= 761630.439\ngini = 0.594\nsamples = 8\nvalue = [4, 3, 0, 0, 1, 0]\nclass = Background"] ;
815 -> 816 ;
817 [label="gini = 0.0\nsamples = 4\nvalue = [4, 0, 0, 0, 0, 0]\nclass = Background"] ;
816 -> 817 ;
818 [label="flow_iat.max <= 119013.071\ngini = 0.375\nsamples = 4\nvalue = [0, 3, 0, 0, 1, 0]\nclass = Benign"] ;
816 -> 818 ;
819 [label="gini = 0.0\nsamples = 3\nvalue = [0, 3, 0, 0, 0, 0]\nclass = Benign"] ;
818 -> 819 ;
820 [label="gini = 0.0\nsamples = 1\nvalue = [0, 0, 0, 0, 1, 0]\nclass = Probing"] ;
818 -> 820 ;
821 [label="fwd_pkts_payload.max <= 576.5\ngini = 0.029\nsamples = 6111\nvalue = [10, 4, 6097, 0, 0, 0]\nclass = Bruteforce"] ;
815 -> 821 ;
822 [label="bwd_pkts_payload.tot <= 7374.0\ngini = 0.027\nsamples = 6097\nvalue = [5, 1, 6091, 0, 0, 0]\nclass = Bruteforce"] ;
821 -> 822 ;
823 [label="gini = 0.0\nsamples = 3\nvalue = [3, 0, 0, 0, 0, 0]\nclass = Background"] ;
822 -> 823 ;
824 [label="bwd_PSH_flag_count <= 4.5\ngini = 0.026\nsamples = 6094\nvalue = [2, 1, 6091, 0, 0, 0]\nclass = Bruteforce"] ;
822 -> 824 ;
825 [label="gini = 0.0\nsamples = 1\nvalue = [1, 0, 0, 0, 0, 0]\nclass = Background"] ;
824 -> 825 ;
826 [label="fwd_pkts_payload.max <= 307.0\ngini = 0.025\nsamples = 6093\nvalue = [1, 1, 6091, 0, 0, 0]\nclass = Bruteforce"] ;
824 -> 826 ;
827 [label="gini = 0.0\nsamples = 1\nvalue = [1, 0, 0, 0, 0, 0]\nclass = Background"] ;
826 -> 827 ;
828 [label="idle.tot <= 11352120.996\ngini = 0.025\nsamples = 6092\nvalue = [0, 1, 6091, 0, 0, 0]\nclass = Bruteforce"] ;
826 -> 828 ;
829 [label="fwd_subflow_pkts <= 6.833\ngini = 0.025\nsamples = 6091\nvalue = [0, 0, 6091, 0, 0, 0]\nclass = Bruteforce"] ;
828 -> 829 ;
830 [label="gini = 0.132\nsamples = 155\nvalue = [0, 0, 155, 0, 0, 0]\nclass = Bruteforce"] ;
829 -> 830 ;
831 [label="gini = 0.022\nsamples = 5936\nvalue = [0, 0, 5936, 0, 0, 0]\nclass = Bruteforce"] ;
829 -> 831 ;
832 [label="gini = 0.0\nsamples = 1\nvalue = [0, 1, 0, 0, 0, 0]\nclass = Benign"] ;
828 -> 832 ;
833 [label="fwd_iat.std <= 823612.351\ngini = 0.643\nsamples = 14\nvalue = [5, 3, 6, 0, 0, 0]\nclass = Bruteforce"] ;
821 -> 833 ;
834 [label="fwd_pkts_payload.max <= 893.0\ngini = 0.469\nsamples = 8\nvalue = [5, 3, 0, 0, 0, 0]\nclass = Background"] ;
833 -> 834 ;
835 [label="gini = -0.0\nsamples = 5\nvalue = [5, 0, 0, 0, 0, 0]\nclass = Background"] ;
834 -> 835 ;
836 [label="gini = 0.0\nsamples = 3\nvalue = [0, 3, 0, 0, 0, 0]\nclass = Benign"] ;
834 -> 836 ;
837 [label="gini = 0.0\nsamples = 6\nvalue = [0, 0, 6, 0, 0, 0]\nclass = Bruteforce"] ;
833 -> 837 ;
838 [label="gini = 0.0\nsamples = 13\nvalue = [13, 0, 0, 0, 0, 0]\nclass = Background"] ;
814 -> 838 ;
839 [label="gini = 0.0\nsamples = 16\nvalue = [16, 0, 0, 0, 0, 0]\nclass = Background"] ;
813 -> 839 ;
840 [label="active.min <= 25447.488\ngini = 0.162\nsamples = 79\nvalue = [72, 7, 0, 0, 0, 0]\nclass = Background"] ;
806 -> 840 ;
841 [label="bwd_header_size_tot <= 580.0\ngini = 0.245\nsamples = 7\nvalue = [1, 6, 0, 0, 0, 0]\nclass = Benign"] ;
840 -> 841 ;
842 [label="gini = 0.0\nsamples = 1\nvalue = [1, 0, 0, 0, 0, 0]\nclass = Background"] ;
841 -> 842 ;
843 [label="gini = 0.0\nsamples = 6\nvalue = [0, 6, 0, 0, 0, 0]\nclass = Benign"] ;
841 -> 843 ;
844 [label="fwd_pkts_payload.max <= 305.0\ngini = 0.027\nsamples = 72\nvalue = [71, 1, 0, 0, 0, 0]\nclass = Background"] ;
840 -> 844 ;
845 [label="bwd_PSH_flag_count <= 7.0\ngini = 0.278\nsamples = 6\nvalue = [5, 1, 0, 0, 0, 0]\nclass = Background"] ;
844 -> 845 ;
846 [label="gini = 0.0\nsamples = 1\nvalue = [0, 1, 0, 0, 0, 0]\nclass = Benign"] ;
845 -> 846 ;
847 [label="gini = 0.0\nsamples = 5\nvalue = [5, 0, 0, 0, 0, 0]\nclass = Background"] ;
845 -> 847 ;
848 [label="gini = 0.0\nsamples = 66\nvalue = [66, 0, 0, 0, 0, 0]\nclass = Background"] ;
844 -> 848 ;
849 [label="flow_iat.min <= 8.464\ngini = 0.599\nsamples = 691\nvalue = [378, 210, 60, 0, 43, 0]\nclass = Background"] ;
805 -> 849 ;
